<?xml version="1.0"?>
<MethodSetup Method="MLP::MLP">
  <GeneralInfo>
    <Info name="TMVA Release" value="4.2.1 [262657]"/>
    <Info name="ROOT Release" value="6.19/01 [398081]"/>
    <Info name="Creator" value="renqi"/>
    <Info name="Date" value="Tue Jul  9 15:49:47 2019"/>
    <Info name="Host" value="Linux renqi-ubuntu 4.15.0-50-generic #54-Ubuntu SMP Mon May 6 18:46:08 UTC 2019 x86_64 x86_64 x86_64 GNU/Linux"/>
    <Info name="Dir" value="/home/renqi/Documents/tth_CMS/HZZ"/>
    <Info name="Training events" value="4964"/>
    <Info name="TrainingTime" value="6.37337804e+00"/>
    <Info name="AnalysisType" value="Classification"/>
  </GeneralInfo>
  <Options>
    <Option name="NCycles" modified="Yes">100</Option>
    <Option name="HiddenLayers" modified="Yes">N+5</Option>
    <Option name="NeuronType" modified="Yes">tanh</Option>
    <Option name="RandomSeed" modified="No">1</Option>
    <Option name="EstimatorType" modified="No">CE</Option>
    <Option name="NeuronInputType" modified="No">sum</Option>
    <Option name="V" modified="Yes">False</Option>
    <Option name="VerbosityLevel" modified="No">Default</Option>
    <Option name="VarTransform" modified="Yes">N</Option>
    <Option name="H" modified="Yes">False</Option>
    <Option name="CreateMVAPdfs" modified="No">False</Option>
    <Option name="IgnoreNegWeightsInTraining" modified="No">False</Option>
    <Option name="TrainingMethod" modified="No">BP</Option>
    <Option name="LearningRate" modified="No">2.000000e-02</Option>
    <Option name="DecayRate" modified="No">1.000000e-02</Option>
    <Option name="TestRate" modified="Yes">5</Option>
    <Option name="EpochMonitoring" modified="No">False</Option>
    <Option name="Sampling" modified="No">1.000000e+00</Option>
    <Option name="SamplingEpoch" modified="No">1.000000e+00</Option>
    <Option name="SamplingImportance" modified="No">1.000000e+00</Option>
    <Option name="SamplingTraining" modified="No">True</Option>
    <Option name="SamplingTesting" modified="No">False</Option>
    <Option name="ResetStep" modified="No">50</Option>
    <Option name="Tau" modified="No">3.000000e+00</Option>
    <Option name="BPMode" modified="No">sequential</Option>
    <Option name="BatchSize" modified="No">-1</Option>
    <Option name="ConvergenceImprove" modified="No">1.000000e-30</Option>
    <Option name="ConvergenceTests" modified="No">-1</Option>
    <Option name="UseRegulator" modified="Yes">False</Option>
    <Option name="UpdateLimit" modified="No">10000</Option>
    <Option name="CalculateErrors" modified="No">False</Option>
    <Option name="WeightRange" modified="No">1.000000e+00</Option>
  </Options>
  <Variables NVar="25">
    <Variable VarIndex="0" Expression="ZZPt" Label="ZZPt" Title="ZZPt" Unit="" Internal="ZZPt" Type="F" Min="3.23371339e+00" Max="9.27989075e+02"/>
    <Variable VarIndex="1" Expression="ZZPhi" Label="ZZPhi" Title="ZZPhi" Unit="" Internal="ZZPhi" Type="F" Min="-3.14100385e+00" Max="3.14145064e+00"/>
    <Variable VarIndex="2" Expression="ZZEta" Label="ZZEta" Title="ZZEta" Unit="" Internal="ZZEta" Type="F" Min="-4.08941126e+00" Max="3.80826759e+00"/>
    <Variable VarIndex="3" Expression="ZZMass" Label="ZZMass" Title="ZZMass" Unit="" Internal="ZZMass" Type="F" Min="1.05067436e+02" Max="1.39997391e+02"/>
    <Variable VarIndex="4" Expression="nCleanedJetsPt30" Label="nCleanedJetsPt30" Title="nCleanedJetsPt30" Unit="" Internal="nCleanedJetsPt30" Type="F" Min="4.00000000e+00" Max="1.10000000e+01"/>
    <Variable VarIndex="5" Expression="JetPt1" Label="JetPt1" Title="JetPt1" Unit="" Internal="JetPt1" Type="F" Min="4.19483223e+01" Max="9.88336731e+02"/>
    <Variable VarIndex="6" Expression="JetEta1" Label="JetEta1" Title="JetEta1" Unit="" Internal="JetEta1" Type="F" Min="-3.96795583e+00" Max="4.18085289e+00"/>
    <Variable VarIndex="7" Expression="JetPhi1" Label="JetPhi1" Title="JetPhi1" Unit="" Internal="JetPhi1" Type="F" Min="-3.14157009e+00" Max="3.14078307e+00"/>
    <Variable VarIndex="8" Expression="JetMass1" Label="JetMass1" Title="JetMass1" Unit="" Internal="JetMass1" Type="F" Min="4.78131866e+00" Max="1.93080917e+02"/>
    <Variable VarIndex="9" Expression="JetBTagger1" Label="JetBTagger1" Title="JetBTagger1" Unit="" Internal="JetBTagger1" Type="F" Min="-2.00000000e+00" Max="9.99891162e-01"/>
    <Variable VarIndex="10" Expression="JetPt2" Label="JetPt2" Title="JetPt2" Unit="" Internal="JetPt2" Type="F" Min="3.39289818e+01" Max="8.30086670e+02"/>
    <Variable VarIndex="11" Expression="JetEta2" Label="JetEta2" Title="JetEta2" Unit="" Internal="JetEta2" Type="F" Min="-4.15170097e+00" Max="4.43598890e+00"/>
    <Variable VarIndex="12" Expression="JetPhi2" Label="JetPhi2" Title="JetPhi2" Unit="" Internal="JetPhi2" Type="F" Min="-3.13956809e+00" Max="3.13940644e+00"/>
    <Variable VarIndex="13" Expression="JetMass2" Label="JetMass2" Title="JetMass2" Unit="" Internal="JetMass2" Type="F" Min="3.12134194e+00" Max="1.08621277e+02"/>
    <Variable VarIndex="14" Expression="JetBTagger2" Label="JetBTagger2" Title="JetBTagger2" Unit="" Internal="JetBTagger2" Type="F" Min="-2.00000000e+00" Max="9.99810159e-01"/>
    <Variable VarIndex="15" Expression="JetPt3" Label="JetPt3" Title="JetPt3" Unit="" Internal="JetPt3" Type="F" Min="3.03662720e+01" Max="3.71841644e+02"/>
    <Variable VarIndex="16" Expression="JetEta3" Label="JetEta3" Title="JetEta3" Unit="" Internal="JetEta3" Type="F" Min="-4.49478579e+00" Max="4.63992548e+00"/>
    <Variable VarIndex="17" Expression="JetPhi3" Label="JetPhi3" Title="JetPhi3" Unit="" Internal="JetPhi3" Type="F" Min="-3.14038920e+00" Max="3.14040327e+00"/>
    <Variable VarIndex="18" Expression="JetMass3" Label="JetMass3" Title="JetMass3" Unit="" Internal="JetMass3" Type="F" Min="2.71688962e+00" Max="4.98353233e+01"/>
    <Variable VarIndex="19" Expression="JetBTagger3" Label="JetBTagger3" Title="JetBTagger3" Unit="" Internal="JetBTagger3" Type="F" Min="-2.00000000e+00" Max="9.99851406e-01"/>
    <Variable VarIndex="20" Expression="JetPt4" Label="JetPt4" Title="JetPt4" Unit="" Internal="JetPt4" Type="F" Min="3.00008869e+01" Max="2.03491074e+02"/>
    <Variable VarIndex="21" Expression="JetEta4" Label="JetEta4" Title="JetEta4" Unit="" Internal="JetEta4" Type="F" Min="-4.55243921e+00" Max="4.53208542e+00"/>
    <Variable VarIndex="22" Expression="JetPhi4" Label="JetPhi4" Title="JetPhi4" Unit="" Internal="JetPhi4" Type="F" Min="-3.14132476e+00" Max="3.14124799e+00"/>
    <Variable VarIndex="23" Expression="JetMass4" Label="JetMass4" Title="JetMass4" Unit="" Internal="JetMass4" Type="F" Min="2.22028160e+00" Max="4.24714508e+01"/>
    <Variable VarIndex="24" Expression="JetBTagger4" Label="JetBTagger4" Title="JetBTagger4" Unit="" Internal="JetBTagger4" Type="F" Min="-2.00000000e+00" Max="9.99800205e-01"/>
  </Variables>
  <Spectators NSpec="0"/>
  <Classes NClass="2">
    <Class Name="Signal" Index="0"/>
    <Class Name="Background" Index="1"/>
  </Classes>
  <Transformations NTransformations="1">
    <Transform Name="Normalize">
      <Selection>
        <Input NInputs="25">
          <Input Type="Variable" Label="ZZPt" Expression="ZZPt"/>
          <Input Type="Variable" Label="ZZPhi" Expression="ZZPhi"/>
          <Input Type="Variable" Label="ZZEta" Expression="ZZEta"/>
          <Input Type="Variable" Label="ZZMass" Expression="ZZMass"/>
          <Input Type="Variable" Label="nCleanedJetsPt30" Expression="nCleanedJetsPt30"/>
          <Input Type="Variable" Label="JetPt1" Expression="JetPt1"/>
          <Input Type="Variable" Label="JetEta1" Expression="JetEta1"/>
          <Input Type="Variable" Label="JetPhi1" Expression="JetPhi1"/>
          <Input Type="Variable" Label="JetMass1" Expression="JetMass1"/>
          <Input Type="Variable" Label="JetBTagger1" Expression="JetBTagger1"/>
          <Input Type="Variable" Label="JetPt2" Expression="JetPt2"/>
          <Input Type="Variable" Label="JetEta2" Expression="JetEta2"/>
          <Input Type="Variable" Label="JetPhi2" Expression="JetPhi2"/>
          <Input Type="Variable" Label="JetMass2" Expression="JetMass2"/>
          <Input Type="Variable" Label="JetBTagger2" Expression="JetBTagger2"/>
          <Input Type="Variable" Label="JetPt3" Expression="JetPt3"/>
          <Input Type="Variable" Label="JetEta3" Expression="JetEta3"/>
          <Input Type="Variable" Label="JetPhi3" Expression="JetPhi3"/>
          <Input Type="Variable" Label="JetMass3" Expression="JetMass3"/>
          <Input Type="Variable" Label="JetBTagger3" Expression="JetBTagger3"/>
          <Input Type="Variable" Label="JetPt4" Expression="JetPt4"/>
          <Input Type="Variable" Label="JetEta4" Expression="JetEta4"/>
          <Input Type="Variable" Label="JetPhi4" Expression="JetPhi4"/>
          <Input Type="Variable" Label="JetMass4" Expression="JetMass4"/>
          <Input Type="Variable" Label="JetBTagger4" Expression="JetBTagger4"/>
        </Input>
        <Output NOutputs="25">
          <Output Type="Variable" Label="ZZPt" Expression="ZZPt"/>
          <Output Type="Variable" Label="ZZPhi" Expression="ZZPhi"/>
          <Output Type="Variable" Label="ZZEta" Expression="ZZEta"/>
          <Output Type="Variable" Label="ZZMass" Expression="ZZMass"/>
          <Output Type="Variable" Label="nCleanedJetsPt30" Expression="nCleanedJetsPt30"/>
          <Output Type="Variable" Label="JetPt1" Expression="JetPt1"/>
          <Output Type="Variable" Label="JetEta1" Expression="JetEta1"/>
          <Output Type="Variable" Label="JetPhi1" Expression="JetPhi1"/>
          <Output Type="Variable" Label="JetMass1" Expression="JetMass1"/>
          <Output Type="Variable" Label="JetBTagger1" Expression="JetBTagger1"/>
          <Output Type="Variable" Label="JetPt2" Expression="JetPt2"/>
          <Output Type="Variable" Label="JetEta2" Expression="JetEta2"/>
          <Output Type="Variable" Label="JetPhi2" Expression="JetPhi2"/>
          <Output Type="Variable" Label="JetMass2" Expression="JetMass2"/>
          <Output Type="Variable" Label="JetBTagger2" Expression="JetBTagger2"/>
          <Output Type="Variable" Label="JetPt3" Expression="JetPt3"/>
          <Output Type="Variable" Label="JetEta3" Expression="JetEta3"/>
          <Output Type="Variable" Label="JetPhi3" Expression="JetPhi3"/>
          <Output Type="Variable" Label="JetMass3" Expression="JetMass3"/>
          <Output Type="Variable" Label="JetBTagger3" Expression="JetBTagger3"/>
          <Output Type="Variable" Label="JetPt4" Expression="JetPt4"/>
          <Output Type="Variable" Label="JetEta4" Expression="JetEta4"/>
          <Output Type="Variable" Label="JetPhi4" Expression="JetPhi4"/>
          <Output Type="Variable" Label="JetMass4" Expression="JetMass4"/>
          <Output Type="Variable" Label="JetBTagger4" Expression="JetBTagger4"/>
        </Output>
      </Selection>
      <Class ClassIndex="0">
        <Ranges>
          <Range Index="0" Min="3.2337133884429932e+00" Max="8.9658905029296875e+02"/>
          <Range Index="1" Min="-3.1404740810394287e+00" Max="3.1414506435394287e+00"/>
          <Range Index="2" Min="-4.0894112586975098e+00" Max="3.4304549694061279e+00"/>
          <Range Index="3" Min="1.0506743621826172e+02" Max="1.3998942565917969e+02"/>
          <Range Index="4" Min="4.0000000000000000e+00" Max="1.1000000000000000e+01"/>
          <Range Index="5" Min="4.1948322296142578e+01" Max="9.8833673095703125e+02"/>
          <Range Index="6" Min="-3.7833771705627441e+00" Max="4.1808528900146484e+00"/>
          <Range Index="7" Min="-3.1415700912475586e+00" Max="3.1384134292602539e+00"/>
          <Range Index="8" Min="4.7813186645507812e+00" Max="1.6702824401855469e+02"/>
          <Range Index="9" Min="-2.0000000000000000e+00" Max="9.9983561038970947e-01"/>
          <Range Index="10" Min="3.3928981781005859e+01" Max="6.4944378662109375e+02"/>
          <Range Index="11" Min="-4.1517009735107422e+00" Max="4.4359889030456543e+00"/>
          <Range Index="12" Min="-3.1380052566528320e+00" Max="3.1342639923095703e+00"/>
          <Range Index="13" Min="3.8910713195800781e+00" Max="1.0862127685546875e+02"/>
          <Range Index="14" Min="-2.0000000000000000e+00" Max="9.9981015920639038e-01"/>
          <Range Index="15" Min="3.0366271972656250e+01" Max="2.4826615905761719e+02"/>
          <Range Index="16" Min="-4.4947857856750488e+00" Max="4.6399254798889160e+00"/>
          <Range Index="17" Min="-3.1403892040252686e+00" Max="3.1404032707214355e+00"/>
          <Range Index="18" Min="3.0222144126892090e+00" Max="4.3030895233154297e+01"/>
          <Range Index="19" Min="-2.0000000000000000e+00" Max="9.9985140562057495e-01"/>
          <Range Index="20" Min="3.0000886917114258e+01" Max="2.0349107360839844e+02"/>
          <Range Index="21" Min="-4.5184755325317383e+00" Max="4.4265646934509277e+00"/>
          <Range Index="22" Min="-3.1413247585296631e+00" Max="3.1412479877471924e+00"/>
          <Range Index="23" Min="2.6016194820404053e+00" Max="3.3164596557617188e+01"/>
          <Range Index="24" Min="-2.0000000000000000e+00" Max="9.9967163801193237e-01"/>
        </Ranges>
      </Class>
      <Class ClassIndex="1">
        <Ranges>
          <Range Index="0" Min="4.2805809974670410e+00" Max="9.2798907470703125e+02"/>
          <Range Index="1" Min="-3.1410038471221924e+00" Max="3.1380097866058350e+00"/>
          <Range Index="2" Min="-3.6573362350463867e+00" Max="3.8082675933837891e+00"/>
          <Range Index="3" Min="1.0574226379394531e+02" Max="1.3999739074707031e+02"/>
          <Range Index="4" Min="4.0000000000000000e+00" Max="1.1000000000000000e+01"/>
          <Range Index="5" Min="5.0288349151611328e+01" Max="9.4814898681640625e+02"/>
          <Range Index="6" Min="-3.9679558277130127e+00" Max="4.0951924324035645e+00"/>
          <Range Index="7" Min="-3.1383726596832275e+00" Max="3.1407830715179443e+00"/>
          <Range Index="8" Min="5.5005636215209961e+00" Max="1.9308091735839844e+02"/>
          <Range Index="9" Min="-2.0000000000000000e+00" Max="9.9989116191864014e-01"/>
          <Range Index="10" Min="3.4833980560302734e+01" Max="8.3008666992187500e+02"/>
          <Range Index="11" Min="-4.1252312660217285e+00" Max="4.0373120307922363e+00"/>
          <Range Index="12" Min="-3.1395680904388428e+00" Max="3.1394064426422119e+00"/>
          <Range Index="13" Min="3.1213419437408447e+00" Max="1.0542956542968750e+02"/>
          <Range Index="14" Min="-2.0000000000000000e+00" Max="9.9978190660476685e-01"/>
          <Range Index="15" Min="3.0620601654052734e+01" Max="3.7184164428710938e+02"/>
          <Range Index="16" Min="-4.4427413940429688e+00" Max="4.4377865791320801e+00"/>
          <Range Index="17" Min="-3.1336953639984131e+00" Max="3.1381971836090088e+00"/>
          <Range Index="18" Min="2.7168896198272705e+00" Max="4.9835323333740234e+01"/>
          <Range Index="19" Min="-2.0000000000000000e+00" Max="9.9971723556518555e-01"/>
          <Range Index="20" Min="3.0031280517578125e+01" Max="1.9518855285644531e+02"/>
          <Range Index="21" Min="-4.5524392127990723e+00" Max="4.5320854187011719e+00"/>
          <Range Index="22" Min="-3.1305818557739258e+00" Max="3.1407423019409180e+00"/>
          <Range Index="23" Min="2.2202816009521484e+00" Max="4.2471450805664062e+01"/>
          <Range Index="24" Min="-2.0000000000000000e+00" Max="9.9980020523071289e-01"/>
        </Ranges>
      </Class>
      <Class ClassIndex="2">
        <Ranges>
          <Range Index="0" Min="3.2337133884429932e+00" Max="9.2798907470703125e+02"/>
          <Range Index="1" Min="-3.1410038471221924e+00" Max="3.1414506435394287e+00"/>
          <Range Index="2" Min="-4.0894112586975098e+00" Max="3.8082675933837891e+00"/>
          <Range Index="3" Min="1.0506743621826172e+02" Max="1.3999739074707031e+02"/>
          <Range Index="4" Min="4.0000000000000000e+00" Max="1.1000000000000000e+01"/>
          <Range Index="5" Min="4.1948322296142578e+01" Max="9.8833673095703125e+02"/>
          <Range Index="6" Min="-3.9679558277130127e+00" Max="4.1808528900146484e+00"/>
          <Range Index="7" Min="-3.1415700912475586e+00" Max="3.1407830715179443e+00"/>
          <Range Index="8" Min="4.7813186645507812e+00" Max="1.9308091735839844e+02"/>
          <Range Index="9" Min="-2.0000000000000000e+00" Max="9.9989116191864014e-01"/>
          <Range Index="10" Min="3.3928981781005859e+01" Max="8.3008666992187500e+02"/>
          <Range Index="11" Min="-4.1517009735107422e+00" Max="4.4359889030456543e+00"/>
          <Range Index="12" Min="-3.1395680904388428e+00" Max="3.1394064426422119e+00"/>
          <Range Index="13" Min="3.1213419437408447e+00" Max="1.0862127685546875e+02"/>
          <Range Index="14" Min="-2.0000000000000000e+00" Max="9.9981015920639038e-01"/>
          <Range Index="15" Min="3.0366271972656250e+01" Max="3.7184164428710938e+02"/>
          <Range Index="16" Min="-4.4947857856750488e+00" Max="4.6399254798889160e+00"/>
          <Range Index="17" Min="-3.1403892040252686e+00" Max="3.1404032707214355e+00"/>
          <Range Index="18" Min="2.7168896198272705e+00" Max="4.9835323333740234e+01"/>
          <Range Index="19" Min="-2.0000000000000000e+00" Max="9.9985140562057495e-01"/>
          <Range Index="20" Min="3.0000886917114258e+01" Max="2.0349107360839844e+02"/>
          <Range Index="21" Min="-4.5524392127990723e+00" Max="4.5320854187011719e+00"/>
          <Range Index="22" Min="-3.1413247585296631e+00" Max="3.1412479877471924e+00"/>
          <Range Index="23" Min="2.2202816009521484e+00" Max="4.2471450805664062e+01"/>
          <Range Index="24" Min="-2.0000000000000000e+00" Max="9.9980020523071289e-01"/>
        </Ranges>
      </Class>
    </Transform>
  </Transformations>
  <MVAPdfs/>
  <Weights>
    <Layout NLayers="3">
      <Layer Index="0" NNeurons="26">
        <Neuron NSynapses="30">
          -3.3269538876359994e-01 2.6056400388421905e+00 7.5391639874268979e-01 2.1670150992583666e+00 -2.5297980324928147e+00 -9.3656492453837281e-01 -9.0977915265746012e-01 2.3290649022508325e+00 -2.2686646731936388e+00 -8.6106032382045339e-01 -4.8996186036682259e+00 -6.9060884263835753e-01 -1.6444189001012564e+00 -3.9650566379250546e-01 -7.8037719658953619e-01 6.2916991847762604e-01 -2.0303695070113790e+00 1.4449574378329546e+00 4.3209050164064611e-01 2.3752955423770619e+00 -1.4394312278167993e+00 -1.7657913068472633e+00 3.1174059182719532e-01 2.0179760706173075e+00 -1.4606165206122896e+00 -4.6019227027458409e-01 1.6958746705969419e+00 -1.3929384534429847e+00 -2.3686276440174932e+00 4.2109556236020901e-01 
        </Neuron>
        <Neuron NSynapses="30">
          1.0000000003399263e+00 9.2521406526272532e-01 4.3811044281870569e-02 1.8516826365411601e-01 6.2008066266072404e-01 -7.3511328780462848e-01 -1.1271297101215532e+00 1.8279701365694019e+00 -1.4363979335187826e+00 7.4114209146338617e-01 2.1776086724557661e-01 7.0666482867757763e-01 7.9160637663342315e-01 1.0391830290115649e+00 -7.0916798553718363e-01 -1.8098181476568536e+00 -7.0679312296651375e-01 -6.4937299463778042e-01 1.6141808110594860e+00 1.0643055341783894e+00 1.2272567428737926e+00 9.3026898899576704e-01 -9.2591699454466614e-01 1.5244454244698924e+00 -2.0919657042628397e+00 -5.7091344401595101e-01 -1.6955097488211057e+00 -2.3524237690937500e+00 1.4708921679523530e+00 1.2834502710238149e+00 
        </Neuron>
        <Neuron NSynapses="30">
          6.1894019094294060e-02 -5.6206871529589375e-01 -5.1942837521698471e-01 1.1214304582822683e+00 3.2015130390278808e+00 -1.1351717140396627e+00 4.8782218573452640e-01 -6.7625044647686061e-01 1.0514767916560008e+00 -9.7176956719537821e-01 -7.2298107183184357e-01 -1.5625205407008131e+00 9.4859596898667087e-01 1.7495018091690313e+00 3.0807113545183534e-01 -1.4275355971062989e-01 -1.5367226319242051e+00 -2.5749761766753152e+00 -7.1625770811833911e-01 -3.4319230081876401e-01 5.1128683521006613e-01 -3.1763390359309973e-01 5.9082186766619460e-01 -1.3300757498297868e+00 2.0941164742806545e-01 -1.3139598949695013e+00 1.1499895434932939e+00 -7.5819747830341433e-01 -5.4359974098915875e-01 -2.5247401851594464e+00 
        </Neuron>
        <Neuron NSynapses="30">
          -6.0345399799039967e-01 -1.3004299941846502e+00 6.5436629363141952e-01 -1.4890515256893062e+00 -5.3512941742611286e-01 1.2939244567470054e-01 -8.2205947977266525e-01 -9.6868384271811170e-01 -1.4494113922873744e+00 -6.7620515303040130e-01 -1.2789872007885654e+00 -8.0593474551318267e-01 4.9493435309727735e-01 1.8903180280503000e+00 -1.3521743412107055e+00 1.5283232016199586e+00 -1.3314399688626888e+00 -1.4889750376021533e+00 4.6132506364132331e-01 5.9284697526321961e-01 -2.2999843209035182e+00 -1.5760255289620637e+00 -1.3352780429677949e-01 1.1588218449147418e+00 -5.9866165760776502e-01 1.5194632032550148e+00 -2.1960081369923534e-01 -5.2722604453504351e-01 8.0564253056662050e-01 -1.0442326815971046e+00 
        </Neuron>
        <Neuron NSynapses="30">
          -6.7578523011037317e-01 -5.2387763992699055e-01 1.3782566304448482e-01 2.4416940694112625e+00 9.3237509375449301e-01 -5.0019465824821074e-01 -6.5900813406233294e-01 2.6555888185127485e+00 -1.7694098534382905e+00 8.7585736838519701e-01 -4.5487154247159600e-01 -1.8054680174805626e+00 7.2288972200508539e-01 -1.8267019784996497e+00 3.3724140151651411e-01 1.5014007498011479e+00 2.8191158127861056e+00 -6.7828254416119704e-01 8.9732677379229209e-01 1.3033872852308066e+00 2.1477642886162593e+00 9.2708353328381410e-01 -7.3937866381048045e-01 6.2801829963534828e-01 -1.9276406626265628e+00 2.3381548169047853e-01 1.0572886443147858e+00 -1.1702758067005345e+00 -4.6383037398138044e-01 2.3006391721571282e-01 
        </Neuron>
        <Neuron NSynapses="30">
          -1.1397018423421394e+00 6.6187836010459611e-01 2.4159143310266056e+00 -5.6229045510034958e-01 -4.8834930339317617e-01 1.0926654151268924e+00 3.5913036733651316e-01 -4.8787579456393704e-01 7.6109941591902419e-01 -2.2136646044290296e+00 1.6615935342351289e+00 1.3674053490226208e+00 7.3523889921610863e-01 6.8727172150682680e-01 9.7269544038806244e-01 -4.5262448417727663e-01 -7.0829216969129227e-01 2.2340544091455386e-01 -2.3004604378983402e-02 -6.9558714445052305e-01 7.7316868162714980e-01 1.9004499210145316e+00 -1.0218287296780285e-01 1.9416252349881418e+00 2.0761358021029896e+00 -1.9790556419815457e+00 -9.3865936832955610e-01 -7.4964934290140639e-01 3.3912391898754612e-02 -2.2087420369947752e+00 
        </Neuron>
        <Neuron NSynapses="30">
          -9.5403001523623265e-01 5.7473364764072066e-01 3.6146291941331370e+00 -1.3337056579157784e+00 2.9818920520415909e-01 4.1536637916079305e-01 3.2855668011674055e-02 6.5523844577804746e-01 -2.8045598433491425e-01 -3.3592471337687102e-01 -1.2547870801268863e+00 1.4864814085250562e+00 2.2739935720095543e+00 1.0668885414163576e+00 5.3702558118415811e-01 -6.8091677786936788e-01 -1.8850471757741765e+00 9.3687781072919862e-01 5.6619152955973429e-01 -1.3222641071398094e+00 -9.2629209313877370e-01 -9.5927052232980725e-01 -4.0439964561668673e-01 -1.7666104052825162e+00 1.7499037928449417e+00 2.9865988517442654e-01 -1.0909597014393093e+00 -1.0381100508684271e+00 1.4573271181277534e+00 2.2361770151601434e+00 
        </Neuron>
        <Neuron NSynapses="30">
          6.1237051581878865e-01 6.8814478952304015e-01 3.7992170817206780e-02 -1.5620497413694487e+00 7.7783187744077953e-01 1.8291851017488130e+00 4.4387627215048758e-01 -7.0680099771069116e-01 1.7276143302993698e+00 -1.4755665585910136e+00 -5.0751674026762383e-01 2.5199402694229078e-01 -1.6393562445491670e+00 -1.6613887867640323e-01 1.2294906551106590e+00 -1.0034495689519385e+00 9.0440189288041339e-01 -7.9581443232041749e-01 -1.7205067061819159e+00 4.3949606779254208e-01 8.7759294486065675e-01 -7.2335959137756611e-01 8.1165641544963474e-01 -1.0325188848249343e+00 2.4098616883286561e+00 -1.6589859111998282e+00 1.9103064873266840e+00 9.0349807399277637e-01 -2.0192531790778658e+00 -2.2381266413708842e+00 
        </Neuron>
        <Neuron NSynapses="30">
          -2.5158536760213930e+00 -5.1739486023003725e-02 -1.2642532342345714e+00 -1.4865145372161668e+00 -1.6231954253337186e+00 -5.1472641539022124e-01 -1.7573014966403440e+00 -2.1652529837912726e+00 9.7131293661532625e-01 -1.0048060488565076e+00 -3.3556467022024050e-01 -4.8014586221009464e-01 5.1596253965968442e-01 1.7864087009370893e+00 1.4430368602147221e+00 -7.5687878214372317e-01 -1.7080947356707326e+00 -2.4864124857508263e+00 2.6687042245603687e-01 -1.1921117471046123e+00 5.8854404963902554e-02 -1.2283447526941967e-01 2.3385272652540019e+00 -4.0706877111100881e-01 4.4469505460282982e-01 -6.0014418402200875e-01 -3.0571364002163706e+00 7.6081546944549716e-01 1.0990124604865352e+00 -6.8023112771540972e-01 
        </Neuron>
        <Neuron NSynapses="30">
          3.1408209426965317e-02 9.5641808076549062e-01 1.0422467690997674e-02 6.7673533572137645e-01 3.9520224540196541e-01 8.1048792236131373e-01 1.8201907008843441e+00 1.1547043373172153e-01 1.0473344798417075e+00 -2.7402906894696205e-01 1.2108294169660128e+00 -1.0724379722877324e+00 -1.1740933965009284e+00 -1.3055546763790166e-01 -1.7609903158232110e+00 -1.3284676143875926e+00 -2.5278884928383549e-01 2.4485983752369136e+00 -1.5741383161145694e+00 1.1606856425831975e+00 -1.9865520190593251e+00 7.7398164299463668e-01 -1.2887879938866684e+00 1.0426341439444795e+00 6.3656116690398756e-01 -1.5729575385848356e+00 1.4202442037726992e+00 1.3828505250345429e+00 -1.7870818158787156e+00 -1.4664837701600832e+00 
        </Neuron>
        <Neuron NSynapses="30">
          -2.2140579077030238e+00 -1.1518556372135167e+00 1.8387936280664465e+00 -5.7377939572974757e-01 7.3297143652894303e-01 -8.0832997961105879e-01 -1.4759229119146604e+00 -2.4141929866152148e+00 -1.1063351413961520e+00 -1.6589031238491367e+00 1.0524189572793483e+00 -1.1388871565829675e+00 -1.2643684572606397e+00 1.8285436260549868e+00 2.2901649200591101e-01 -3.2791164359262653e-01 1.8313888352924632e+00 -2.3193291198724268e+00 1.5055725205413342e+00 1.2364010076676606e+00 -8.2513378087408129e-01 -5.0016955037677202e-01 1.0672012618066472e-01 -1.1478145362815584e+00 2.0378231901074112e-01 1.7477690248773028e+00 1.5079731212689966e+00 7.5907244492733683e-01 -1.0733747779437668e+00 1.2005563398456514e+00 
        </Neuron>
        <Neuron NSynapses="30">
          -1.7116870718442030e+00 5.1999042491289338e-01 -3.9365004958057086e+00 -1.4319803484205138e+00 1.3075796722183477e+00 2.1707574971348809e+00 7.7731419225411824e-02 1.9536757723752154e+00 7.2037921005334654e-02 -1.1684468305880662e-01 -1.0685035137903596e+00 -5.8585574568755461e-02 2.0051240887385302e+00 -1.7709516599518309e+00 -1.1108563421585475e-01 -1.2292126787150464e+00 -8.8498742043517220e-01 9.7643404244652765e-01 -1.1190805670380329e-01 -1.7041741366252623e+00 1.7693131527716248e+00 3.0150075718029803e+00 -5.1044447891104884e-03 -1.5442277659822126e+00 -2.1058551821262772e-01 -1.6694827462381150e+00 -1.4831728821796013e+00 8.3970709992309017e-02 -2.1384018913105665e-01 -1.1954328412315671e+00 
        </Neuron>
        <Neuron NSynapses="30">
          2.4103469764671157e+00 -1.7736939206555393e+00 1.5195621968197867e-01 -9.8762152121282509e-01 1.6671471606837500e+00 -9.3685561912105142e-01 -1.5544653573338960e+00 -1.7678723220171638e-01 -1.0682750701226000e+00 -1.1648308269854557e+00 4.0063759121729503e-01 -2.0465750918835006e+00 -9.2298464499319999e-01 2.3690113003289675e+00 -4.8380507773574793e-01 4.1987949714763834e-01 -5.4086330738965946e-02 5.6206946724625251e-01 2.0952066960401425e+00 2.4547892693229479e-02 -1.3259748482533751e+00 -3.3980177222604324e-01 -2.1484473979493246e+00 8.7102038617113042e-01 6.1655216972351989e-01 9.9243693718778259e-01 8.5460579559512151e-01 6.7245401143384842e-01 1.8091385448094410e+00 7.5203637833276349e-01 
        </Neuron>
        <Neuron NSynapses="30">
          1.0088488319009683e+00 7.0375778248090637e-01 -1.5676035295479296e+00 -3.8214756455928423e-01 -1.1085753773723315e+00 1.0720254477598676e+00 4.0567941937898927e-01 6.3581846763846639e-01 1.6069225374414493e+00 -5.4173273326544769e-01 1.3079689299724746e+00 2.2799002153495773e+00 1.3157886915019507e-01 -1.1456054280549488e+00 1.5021703043595078e+00 -1.7374344424136785e+00 -2.6074527444415097e-01 1.1970570807740941e+00 -4.4062014599442667e-01 -4.0006696263936486e-01 -3.1031612391679075e-01 -1.4766757942305826e+00 6.3665609324559114e-01 -9.7147814547179134e-01 1.3064517737534112e-01 -4.7835881494564630e-01 1.5100168052346301e+00 5.6083453892234247e-01 2.1244411681368276e+00 -5.5191277376441539e-01 
        </Neuron>
        <Neuron NSynapses="30">
          -1.8094312940697495e+00 -2.8592516865221035e-01 9.7886055365862668e-01 -2.1209360911457416e+00 -9.2961067549687559e-01 5.7762866272829927e-01 -9.7816187673475530e-01 -3.1303982421466392e+00 -1.0871823631983473e+00 1.0603432202479581e+00 -1.0828470481995724e+00 -1.6753291497370517e+00 -1.7444606698286276e+00 -1.3327903160568533e-01 1.7856183303636024e+00 1.4928394697685414e+00 4.7754026479614109e-01 2.5541928515598328e-01 -2.3831446252241610e+00 -1.9080397051211492e-01 -3.5879896940371148e-01 -7.5526661612000856e-01 -8.9602592700530836e-01 4.1533855621480337e-01 -1.9448261384838454e+00 1.3593346816626817e+00 9.5519183877715896e-01 1.1437681152724579e+00 -2.1378149903766559e+00 -1.4727477226952428e+00 
        </Neuron>
        <Neuron NSynapses="30">
          2.4028193627888221e+00 -5.6883139118971238e-01 -9.8639074148663985e-01 1.7251448087022845e+00 1.5003823635627758e+00 3.5703089079234085e-01 8.6394016366828708e-01 -2.4847147565255745e+00 1.6673523174170610e+00 1.5600088997143080e+00 -5.1109807926790651e-01 5.7500068827732209e-01 4.1938989904028728e-01 -3.6240420505689475e-01 1.1160878639968517e+00 5.6948667176246914e-01 -3.2493348652086995e-01 -1.1726708048103798e+00 -2.6445543748556338e-01 1.7935000619867598e+00 7.5614026458994044e-01 -7.7941675775101360e-01 -1.8678495210386297e+00 3.8392276337086484e-01 -2.1608888692269734e-01 -1.1858105019609857e+00 1.9632102508171864e-01 -1.2598780184135148e+00 1.3513100110685687e+00 1.5383504606090730e+00 
        </Neuron>
        <Neuron NSynapses="30">
          2.2420598704049749e-01 1.5239362669084941e-02 1.6942135548580137e+00 1.6900210182772009e+00 1.5323812800517511e+00 -1.1510014500544465e-01 -1.0755599980977397e+00 -1.7441945631316698e+00 1.1840201269053803e+00 1.0444016376040763e+00 -7.9244852448918535e-01 -8.1502660476995403e-01 -1.1890599473361108e+00 -1.6944355674116542e+00 -3.7810830807189744e-01 -1.9005789664605910e+00 -5.0794375819820964e-02 -4.5980944002680157e-01 3.0848277433289697e+00 6.7739307738597643e-01 -1.0372665079384955e+00 1.3574594277503989e+00 1.8439943647629007e+00 4.1971463799924162e-02 1.0138843719207347e+00 -7.3173119955696309e-01 7.5156507158273278e-01 -2.2690493768046638e+00 1.3607821574947812e-01 -7.9410390621901306e-02 
        </Neuron>
        <Neuron NSynapses="30">
          1.0676940838404623e+00 -9.1919979268630325e-01 -1.0636287181516281e-01 -7.8006119357446635e-01 8.5466221150055810e-01 -1.8619403738129632e+00 -4.8014469507989382e-01 9.2546191512597897e-01 1.9119886357763172e-01 1.4508403565602666e+00 7.5820426782673611e-01 -7.9035477521636921e-01 1.5914273451671299e+00 -1.3736790193467230e+00 7.8259710658814796e-01 1.0103387421100496e+00 -3.9287325048482064e-01 1.0056569809780957e+00 1.5366435139579173e+00 -1.3641210626500295e+00 -7.7592612715404008e-01 -1.0167706060381256e+00 2.9997400030548366e-01 -5.9016137801650392e-01 2.3505522213245059e-01 -7.2708941805717076e-01 4.4113479546632661e-01 -6.6143764513531733e-01 -1.2774626106347857e+00 -2.0445763492735303e+00 
        </Neuron>
        <Neuron NSynapses="30">
          -6.1390427742669307e-01 -2.0171387608690580e-01 -1.0999331714756548e+00 -7.9667376129263101e-01 9.2113353579489066e-01 6.5837236457301029e-01 -6.1478192839679535e-01 -7.3537812733339258e-01 1.7097905665429813e+00 -3.9283882764400574e-01 -3.5243722435469038e-01 1.6063352108280851e+00 -1.0856595431111420e+00 -1.0504905427257540e+00 -4.5939287223638642e-01 -1.7093550626027911e+00 -4.7405867223192405e-01 -1.2732695939274568e+00 1.0284835818641527e+00 -2.2130172167144559e+00 1.8618386004557499e+00 1.7539665689269095e+00 1.5247280730662505e+00 9.3837525724140736e-01 4.1003208894101145e-01 7.8890214968211150e-02 2.3006988840983181e-01 -1.8940920363277711e+00 -1.1716954595996021e+00 1.8316643173442587e-02 
        </Neuron>
        <Neuron NSynapses="30">
          5.4779368255691741e-01 1.3564141083335981e+00 3.3561591187248130e-01 1.3902585806072356e+00 9.5855136137800445e-01 -8.0347983901161957e-01 2.3542568245647935e-01 -1.1056616593808375e+00 8.8258542382454042e-01 -5.7180155937993316e-01 -5.7662992408534253e-01 7.3858571809382745e-01 1.8561458961461481e+00 -1.2405694777742664e+00 -6.4412322499550784e-02 -1.8239702783830769e+00 6.8709676872945813e-01 1.6648988777067710e+00 -2.8632098880541551e-01 -6.1539874060921707e-02 -3.7330546873796788e-01 2.6912884868035258e-01 -1.3588444490777016e+00 2.8367933749157354e-01 -2.2908377026975808e+00 -1.3279539729357812e+00 2.4261572472424651e+00 -8.5522043262236835e-01 -1.4306014881553988e+00 -1.5893167007935984e+00 
        </Neuron>
        <Neuron NSynapses="30">
          1.2690454868941261e+00 1.8390405416879181e+00 -2.5349735794405376e-01 -1.6861805848651898e+00 1.4943759343165728e+00 1.1219653386696982e+00 -1.2375861494744889e-01 -6.6625740851646698e-01 -1.2152978928440790e+00 5.7305405081158112e-02 -7.4276999429338755e-02 3.3340326189446476e+00 -3.7830478737962703e-01 1.6989935714780505e-01 -9.4732196796793799e-01 1.5729302836472181e+00 9.5641066561786148e-01 1.6556607923701669e+00 -1.1569132974937246e+00 -1.7712849486092082e+00 1.6532390005691782e+00 2.1910343551104331e-02 1.4621932541500775e+00 1.1375207602337101e+00 -7.3718585724848484e-01 -1.1712140356076428e+00 -8.5375237077713573e-01 8.7353222625590587e-02 -8.8321133526177142e-01 3.3902983760191518e-01 
        </Neuron>
        <Neuron NSynapses="30">
          -1.6580285506436970e-01 -1.2537593165076313e+00 1.6125971504812309e+00 -1.1327575920149646e+00 -9.2878044143278460e-01 -7.1626878780333147e-01 -1.1336121152190233e+00 2.1988149257632306e-01 1.1733835539913042e+00 -8.2898679513217510e-01 -7.5955839855590990e-01 -9.1832963999972150e-01 4.4926861502666904e-01 8.8176921021289967e-01 -9.6316735434613066e-01 -6.1419185036268531e-01 -1.0399920771308886e+00 -1.5817167848706886e-02 7.1692444017599999e-01 2.0730537915749867e+00 -8.0944388676226131e-01 7.8022427571384820e-02 -1.8910094162694151e+00 -6.0426715662574515e-01 3.0556291125851393e-01 1.2182014007495905e+00 7.4047148344252445e-01 -1.5064380724549709e+00 -2.2398244117162869e-01 -1.7960925348394277e+00 
        </Neuron>
        <Neuron NSynapses="30">
          -2.3680957612624263e+00 2.1569772921622286e+00 3.0223632696199387e-01 -1.7260864556499895e+00 -9.2033442387851039e-01 -1.4829133414685307e+00 4.3697927329840597e-01 1.1213977712018672e+00 8.9886011561556278e-01 1.2793892301918111e+00 -1.9563141056653902e-01 -2.6301226715006698e-01 -9.3489099958218558e-01 2.4988300830688804e-02 1.5082031282276096e+00 -1.9075506213062339e+00 2.8158390248154350e+00 -1.2243407146642924e+00 1.1346474369706500e-01 -1.8703391010720340e+00 2.0869244829201277e+00 1.7828500644923586e+00 1.7262691637691068e+00 -1.4576857844743152e+00 1.1665233914981457e+00 8.8479505424116078e-01 7.9793213508005190e-01 -8.7679881576201957e-01 -1.3493658877597683e+00 -1.8781772328044273e+00 
        </Neuron>
        <Neuron NSynapses="30">
          4.7728995128553336e-01 3.2059413570956680e-01 -7.0849009856264222e-01 7.0041313320764764e-01 8.2531996385192663e-01 3.7513156684996685e-01 6.9792086612162085e-01 9.7477838322403454e-01 -1.9481502424536727e+00 -2.6467481774633084e-01 1.3363353707935883e+00 1.6643749567453363e+00 1.6723971404913729e+00 -5.2347679973575212e-01 -1.4090935234790656e+00 -6.4246997704172792e-01 -8.9968444605488240e-01 -1.1527814509198115e+00 5.4248850186002806e-01 1.4168076471340629e-01 -1.7444828938276428e-02 1.2448129840874977e+00 1.2297420170351507e+00 5.8501017075855932e-01 -4.2192470623981314e-02 1.9274223719676439e-01 9.1555117545218423e-01 -1.6055604081162222e+00 2.7666251326812015e+00 -6.4173069089497636e-01 
        </Neuron>
        <Neuron NSynapses="30">
          -1.7402743568389278e-01 2.2603407500896431e+00 -2.0349423455896991e+00 -1.0786859046319870e+00 9.9178055455236835e-01 2.3793329314831313e+00 8.4247760735481270e-01 -2.2252080582594858e-01 2.2723073274318266e+00 2.5335165262301991e+00 5.0639572232560126e-01 -2.8964489607475857e-01 1.6836165400129450e+00 1.5817535955861719e+00 2.4984713898863983e-01 6.5851332695251708e-01 5.3400903177082326e-01 1.5909382382801325e+00 -2.1379668194701313e+00 -8.2262008041789159e-01 -4.1854458707109427e-01 1.2446759893086692e+00 -2.6930844661649256e+00 4.7850945673071082e-01 -3.4353079933496738e-01 -2.5413303999965980e-01 1.6297943905011090e+00 2.0624174961722170e+00 -1.9601348701297665e+00 -9.8697785351804346e-01 
        </Neuron>
        <Neuron NSynapses="30">
          2.7597165433751580e-01 1.6429693990512628e+00 1.5603864230649525e+00 1.2021948862437948e+00 1.6952223720817263e+00 5.4344395722930383e-01 1.3538381091175760e+00 2.3625689408413461e-02 -9.1071695768467942e-01 2.2804739234154874e+00 -6.9146645076606117e-01 7.4915953609115427e-01 2.4916830339299808e-02 -9.4434942785386500e-01 2.2080499918285410e+00 -2.9216700915990412e-01 -1.1530510804788534e+00 -7.3799775156224845e-01 -1.0993241958200484e+00 -1.8611460617106683e+00 -1.8074115688952759e+00 9.3619038401324206e-01 5.5260883380502790e-01 3.9690322114632863e+00 1.9650271995389898e-01 -1.1592663064702959e+00 -1.4747321321160503e+00 2.5510102833203554e+00 -1.3232888720907834e-01 -4.1870941234425746e-01 
        </Neuron>
      </Layer>
      <Layer Index="1" NNeurons="31">
        <Neuron NSynapses="1">
          6.1083527623085609e-01 
        </Neuron>
        <Neuron NSynapses="1">
          -4.7814796603616350e-01 
        </Neuron>
        <Neuron NSynapses="1">
          9.0861370391411711e-01 
        </Neuron>
        <Neuron NSynapses="1">
          -1.6840453862400212e-01 
        </Neuron>
        <Neuron NSynapses="1">
          -6.1548615660846973e-01 
        </Neuron>
        <Neuron NSynapses="1">
          6.5007747660352511e-01 
        </Neuron>
        <Neuron NSynapses="1">
          8.0505686180316893e-01 
        </Neuron>
        <Neuron NSynapses="1">
          -4.9258026483635475e-01 
        </Neuron>
        <Neuron NSynapses="1">
          3.1877325422055451e-02 
        </Neuron>
        <Neuron NSynapses="1">
          -1.2486313943656604e+00 
        </Neuron>
        <Neuron NSynapses="1">
          5.5759077091480380e-01 
        </Neuron>
        <Neuron NSynapses="1">
          -1.1735000777361626e+00 
        </Neuron>
        <Neuron NSynapses="1">
          2.1675395938535222e-01 
        </Neuron>
        <Neuron NSynapses="1">
          1.6841525542043326e-01 
        </Neuron>
        <Neuron NSynapses="1">
          -3.4527725901047368e-01 
        </Neuron>
        <Neuron NSynapses="1">
          1.8611981260376834e-01 
        </Neuron>
        <Neuron NSynapses="1">
          6.2298696549696286e-01 
        </Neuron>
        <Neuron NSynapses="1">
          2.2202607828755401e+00 
        </Neuron>
        <Neuron NSynapses="1">
          -1.7802480361393347e+00 
        </Neuron>
        <Neuron NSynapses="1">
          -3.7953406868777367e-01 
        </Neuron>
        <Neuron NSynapses="1">
          2.1476812273906574e+00 
        </Neuron>
        <Neuron NSynapses="1">
          6.3938498345823247e-01 
        </Neuron>
        <Neuron NSynapses="1">
          7.2224646649756186e-01 
        </Neuron>
        <Neuron NSynapses="1">
          -9.2059056306200715e-01 
        </Neuron>
        <Neuron NSynapses="1">
          -5.4937464145902748e-01 
        </Neuron>
        <Neuron NSynapses="1">
          -4.4281751337853131e-01 
        </Neuron>
        <Neuron NSynapses="1">
          -7.5599409319091393e-01 
        </Neuron>
        <Neuron NSynapses="1">
          -2.4131742089484089e+00 
        </Neuron>
        <Neuron NSynapses="1">
          1.3878826417939951e+00 
        </Neuron>
        <Neuron NSynapses="1">
          -8.4433935980114005e-01 
        </Neuron>
        <Neuron NSynapses="1">
          1.3555399963631882e+00 
        </Neuron>
      </Layer>
      <Layer Index="2" NNeurons="1">
        <Neuron NSynapses="0"/>
      </Layer>
    </Layout>
  </Weights>
</MethodSetup>
