<?xml version="1.0"?>
<MethodSetup Method="MLP::MLP">
  <GeneralInfo>
    <Info name="TMVA Release" value="4.2.1 [262657]"/>
    <Info name="ROOT Release" value="6.19/01 [398081]"/>
    <Info name="Creator" value="renqi"/>
    <Info name="Date" value="Wed Jul 10 20:05:55 2019"/>
    <Info name="Host" value="Linux renqi-ubuntu 4.15.0-50-generic #54-Ubuntu SMP Mon May 6 18:46:08 UTC 2019 x86_64 x86_64 x86_64 GNU/Linux"/>
    <Info name="Dir" value="/home/renqi/Documents/tth_CMS/HZZ"/>
    <Info name="Training events" value="4964"/>
    <Info name="TrainingTime" value="6.08088779e+00"/>
    <Info name="AnalysisType" value="Classification"/>
  </GeneralInfo>
  <Options>
    <Option name="NCycles" modified="Yes">100</Option>
    <Option name="HiddenLayers" modified="Yes">N+5</Option>
    <Option name="NeuronType" modified="Yes">tanh</Option>
    <Option name="RandomSeed" modified="No">1</Option>
    <Option name="EstimatorType" modified="No">CE</Option>
    <Option name="NeuronInputType" modified="No">sum</Option>
    <Option name="V" modified="Yes">False</Option>
    <Option name="VerbosityLevel" modified="No">Default</Option>
    <Option name="VarTransform" modified="Yes">N</Option>
    <Option name="H" modified="Yes">False</Option>
    <Option name="CreateMVAPdfs" modified="No">False</Option>
    <Option name="IgnoreNegWeightsInTraining" modified="No">False</Option>
    <Option name="TrainingMethod" modified="No">BP</Option>
    <Option name="LearningRate" modified="No">2.000000e-02</Option>
    <Option name="DecayRate" modified="No">1.000000e-02</Option>
    <Option name="TestRate" modified="Yes">5</Option>
    <Option name="EpochMonitoring" modified="No">False</Option>
    <Option name="Sampling" modified="No">1.000000e+00</Option>
    <Option name="SamplingEpoch" modified="No">1.000000e+00</Option>
    <Option name="SamplingImportance" modified="No">1.000000e+00</Option>
    <Option name="SamplingTraining" modified="No">True</Option>
    <Option name="SamplingTesting" modified="No">False</Option>
    <Option name="ResetStep" modified="No">50</Option>
    <Option name="Tau" modified="No">3.000000e+00</Option>
    <Option name="BPMode" modified="No">sequential</Option>
    <Option name="BatchSize" modified="No">-1</Option>
    <Option name="ConvergenceImprove" modified="No">1.000000e-30</Option>
    <Option name="ConvergenceTests" modified="No">-1</Option>
    <Option name="UseRegulator" modified="Yes">False</Option>
    <Option name="UpdateLimit" modified="No">10000</Option>
    <Option name="CalculateErrors" modified="No">False</Option>
    <Option name="WeightRange" modified="No">1.000000e+00</Option>
  </Options>
  <Variables NVar="24">
    <Variable VarIndex="0" Expression="ZZPt" Label="ZZPt" Title="ZZPt" Unit="" Internal="ZZPt" Type="F" Min="3.23371339e+00" Max="9.27989075e+02"/>
    <Variable VarIndex="1" Expression="ZZPhi" Label="ZZPhi" Title="ZZPhi" Unit="" Internal="ZZPhi" Type="F" Min="-3.14100385e+00" Max="3.14145064e+00"/>
    <Variable VarIndex="2" Expression="ZZEta" Label="ZZEta" Title="ZZEta" Unit="" Internal="ZZEta" Type="F" Min="-4.08941126e+00" Max="3.80826759e+00"/>
    <Variable VarIndex="3" Expression="ZZMass" Label="ZZMass" Title="ZZMass" Unit="" Internal="ZZMass" Type="F" Min="1.05067436e+02" Max="1.39997391e+02"/>
    <Variable VarIndex="4" Expression="JetPt1" Label="JetPt1" Title="JetPt1" Unit="" Internal="JetPt1" Type="F" Min="4.19483223e+01" Max="9.88336731e+02"/>
    <Variable VarIndex="5" Expression="JetEta1" Label="JetEta1" Title="JetEta1" Unit="" Internal="JetEta1" Type="F" Min="-3.96795583e+00" Max="4.18085289e+00"/>
    <Variable VarIndex="6" Expression="JetPhi1" Label="JetPhi1" Title="JetPhi1" Unit="" Internal="JetPhi1" Type="F" Min="-3.14157009e+00" Max="3.14078307e+00"/>
    <Variable VarIndex="7" Expression="JetMass1" Label="JetMass1" Title="JetMass1" Unit="" Internal="JetMass1" Type="F" Min="4.78131866e+00" Max="1.93080917e+02"/>
    <Variable VarIndex="8" Expression="JetBTagger1" Label="JetBTagger1" Title="JetBTagger1" Unit="" Internal="JetBTagger1" Type="F" Min="-2.00000000e+00" Max="9.99891162e-01"/>
    <Variable VarIndex="9" Expression="JetPt2" Label="JetPt2" Title="JetPt2" Unit="" Internal="JetPt2" Type="F" Min="3.39289818e+01" Max="8.30086670e+02"/>
    <Variable VarIndex="10" Expression="JetEta2" Label="JetEta2" Title="JetEta2" Unit="" Internal="JetEta2" Type="F" Min="-4.15170097e+00" Max="4.43598890e+00"/>
    <Variable VarIndex="11" Expression="JetPhi2" Label="JetPhi2" Title="JetPhi2" Unit="" Internal="JetPhi2" Type="F" Min="-3.13956809e+00" Max="3.13940644e+00"/>
    <Variable VarIndex="12" Expression="JetMass2" Label="JetMass2" Title="JetMass2" Unit="" Internal="JetMass2" Type="F" Min="3.12134194e+00" Max="1.08621277e+02"/>
    <Variable VarIndex="13" Expression="JetBTagger2" Label="JetBTagger2" Title="JetBTagger2" Unit="" Internal="JetBTagger2" Type="F" Min="-2.00000000e+00" Max="9.99810159e-01"/>
    <Variable VarIndex="14" Expression="JetPt3" Label="JetPt3" Title="JetPt3" Unit="" Internal="JetPt3" Type="F" Min="3.03662720e+01" Max="3.71841644e+02"/>
    <Variable VarIndex="15" Expression="JetEta3" Label="JetEta3" Title="JetEta3" Unit="" Internal="JetEta3" Type="F" Min="-4.49478579e+00" Max="4.63992548e+00"/>
    <Variable VarIndex="16" Expression="JetPhi3" Label="JetPhi3" Title="JetPhi3" Unit="" Internal="JetPhi3" Type="F" Min="-3.14038920e+00" Max="3.14040327e+00"/>
    <Variable VarIndex="17" Expression="JetMass3" Label="JetMass3" Title="JetMass3" Unit="" Internal="JetMass3" Type="F" Min="2.71688962e+00" Max="4.98353233e+01"/>
    <Variable VarIndex="18" Expression="JetBTagger3" Label="JetBTagger3" Title="JetBTagger3" Unit="" Internal="JetBTagger3" Type="F" Min="-2.00000000e+00" Max="9.99851406e-01"/>
    <Variable VarIndex="19" Expression="JetPt4" Label="JetPt4" Title="JetPt4" Unit="" Internal="JetPt4" Type="F" Min="3.00008869e+01" Max="2.03491074e+02"/>
    <Variable VarIndex="20" Expression="JetEta4" Label="JetEta4" Title="JetEta4" Unit="" Internal="JetEta4" Type="F" Min="-4.55243921e+00" Max="4.53208542e+00"/>
    <Variable VarIndex="21" Expression="JetPhi4" Label="JetPhi4" Title="JetPhi4" Unit="" Internal="JetPhi4" Type="F" Min="-3.14132476e+00" Max="3.14124799e+00"/>
    <Variable VarIndex="22" Expression="JetMass4" Label="JetMass4" Title="JetMass4" Unit="" Internal="JetMass4" Type="F" Min="2.22028160e+00" Max="4.24714508e+01"/>
    <Variable VarIndex="23" Expression="JetBTagger4" Label="JetBTagger4" Title="JetBTagger4" Unit="" Internal="JetBTagger4" Type="F" Min="-2.00000000e+00" Max="9.99800205e-01"/>
  </Variables>
  <Spectators NSpec="0"/>
  <Classes NClass="2">
    <Class Name="Signal" Index="0"/>
    <Class Name="Background" Index="1"/>
  </Classes>
  <Transformations NTransformations="1">
    <Transform Name="Normalize">
      <Selection>
        <Input NInputs="24">
          <Input Type="Variable" Label="ZZPt" Expression="ZZPt"/>
          <Input Type="Variable" Label="ZZPhi" Expression="ZZPhi"/>
          <Input Type="Variable" Label="ZZEta" Expression="ZZEta"/>
          <Input Type="Variable" Label="ZZMass" Expression="ZZMass"/>
          <Input Type="Variable" Label="JetPt1" Expression="JetPt1"/>
          <Input Type="Variable" Label="JetEta1" Expression="JetEta1"/>
          <Input Type="Variable" Label="JetPhi1" Expression="JetPhi1"/>
          <Input Type="Variable" Label="JetMass1" Expression="JetMass1"/>
          <Input Type="Variable" Label="JetBTagger1" Expression="JetBTagger1"/>
          <Input Type="Variable" Label="JetPt2" Expression="JetPt2"/>
          <Input Type="Variable" Label="JetEta2" Expression="JetEta2"/>
          <Input Type="Variable" Label="JetPhi2" Expression="JetPhi2"/>
          <Input Type="Variable" Label="JetMass2" Expression="JetMass2"/>
          <Input Type="Variable" Label="JetBTagger2" Expression="JetBTagger2"/>
          <Input Type="Variable" Label="JetPt3" Expression="JetPt3"/>
          <Input Type="Variable" Label="JetEta3" Expression="JetEta3"/>
          <Input Type="Variable" Label="JetPhi3" Expression="JetPhi3"/>
          <Input Type="Variable" Label="JetMass3" Expression="JetMass3"/>
          <Input Type="Variable" Label="JetBTagger3" Expression="JetBTagger3"/>
          <Input Type="Variable" Label="JetPt4" Expression="JetPt4"/>
          <Input Type="Variable" Label="JetEta4" Expression="JetEta4"/>
          <Input Type="Variable" Label="JetPhi4" Expression="JetPhi4"/>
          <Input Type="Variable" Label="JetMass4" Expression="JetMass4"/>
          <Input Type="Variable" Label="JetBTagger4" Expression="JetBTagger4"/>
        </Input>
        <Output NOutputs="24">
          <Output Type="Variable" Label="ZZPt" Expression="ZZPt"/>
          <Output Type="Variable" Label="ZZPhi" Expression="ZZPhi"/>
          <Output Type="Variable" Label="ZZEta" Expression="ZZEta"/>
          <Output Type="Variable" Label="ZZMass" Expression="ZZMass"/>
          <Output Type="Variable" Label="JetPt1" Expression="JetPt1"/>
          <Output Type="Variable" Label="JetEta1" Expression="JetEta1"/>
          <Output Type="Variable" Label="JetPhi1" Expression="JetPhi1"/>
          <Output Type="Variable" Label="JetMass1" Expression="JetMass1"/>
          <Output Type="Variable" Label="JetBTagger1" Expression="JetBTagger1"/>
          <Output Type="Variable" Label="JetPt2" Expression="JetPt2"/>
          <Output Type="Variable" Label="JetEta2" Expression="JetEta2"/>
          <Output Type="Variable" Label="JetPhi2" Expression="JetPhi2"/>
          <Output Type="Variable" Label="JetMass2" Expression="JetMass2"/>
          <Output Type="Variable" Label="JetBTagger2" Expression="JetBTagger2"/>
          <Output Type="Variable" Label="JetPt3" Expression="JetPt3"/>
          <Output Type="Variable" Label="JetEta3" Expression="JetEta3"/>
          <Output Type="Variable" Label="JetPhi3" Expression="JetPhi3"/>
          <Output Type="Variable" Label="JetMass3" Expression="JetMass3"/>
          <Output Type="Variable" Label="JetBTagger3" Expression="JetBTagger3"/>
          <Output Type="Variable" Label="JetPt4" Expression="JetPt4"/>
          <Output Type="Variable" Label="JetEta4" Expression="JetEta4"/>
          <Output Type="Variable" Label="JetPhi4" Expression="JetPhi4"/>
          <Output Type="Variable" Label="JetMass4" Expression="JetMass4"/>
          <Output Type="Variable" Label="JetBTagger4" Expression="JetBTagger4"/>
        </Output>
      </Selection>
      <Class ClassIndex="0">
        <Ranges>
          <Range Index="0" Min="3.2337133884429932e+00" Max="8.9658905029296875e+02"/>
          <Range Index="1" Min="-3.1404740810394287e+00" Max="3.1414506435394287e+00"/>
          <Range Index="2" Min="-4.0894112586975098e+00" Max="3.4304549694061279e+00"/>
          <Range Index="3" Min="1.0506743621826172e+02" Max="1.3998942565917969e+02"/>
          <Range Index="4" Min="4.1948322296142578e+01" Max="9.8833673095703125e+02"/>
          <Range Index="5" Min="-3.7833771705627441e+00" Max="4.1808528900146484e+00"/>
          <Range Index="6" Min="-3.1415700912475586e+00" Max="3.1384134292602539e+00"/>
          <Range Index="7" Min="4.7813186645507812e+00" Max="1.6702824401855469e+02"/>
          <Range Index="8" Min="-2.0000000000000000e+00" Max="9.9983561038970947e-01"/>
          <Range Index="9" Min="3.3928981781005859e+01" Max="6.4944378662109375e+02"/>
          <Range Index="10" Min="-4.1517009735107422e+00" Max="4.4359889030456543e+00"/>
          <Range Index="11" Min="-3.1380052566528320e+00" Max="3.1342639923095703e+00"/>
          <Range Index="12" Min="3.8910713195800781e+00" Max="1.0862127685546875e+02"/>
          <Range Index="13" Min="-2.0000000000000000e+00" Max="9.9981015920639038e-01"/>
          <Range Index="14" Min="3.0366271972656250e+01" Max="2.4826615905761719e+02"/>
          <Range Index="15" Min="-4.4947857856750488e+00" Max="4.6399254798889160e+00"/>
          <Range Index="16" Min="-3.1403892040252686e+00" Max="3.1404032707214355e+00"/>
          <Range Index="17" Min="3.0222144126892090e+00" Max="4.3030895233154297e+01"/>
          <Range Index="18" Min="-2.0000000000000000e+00" Max="9.9985140562057495e-01"/>
          <Range Index="19" Min="3.0000886917114258e+01" Max="2.0349107360839844e+02"/>
          <Range Index="20" Min="-4.5184755325317383e+00" Max="4.4265646934509277e+00"/>
          <Range Index="21" Min="-3.1413247585296631e+00" Max="3.1412479877471924e+00"/>
          <Range Index="22" Min="2.6016194820404053e+00" Max="3.3164596557617188e+01"/>
          <Range Index="23" Min="-2.0000000000000000e+00" Max="9.9967163801193237e-01"/>
        </Ranges>
      </Class>
      <Class ClassIndex="1">
        <Ranges>
          <Range Index="0" Min="4.2805809974670410e+00" Max="9.2798907470703125e+02"/>
          <Range Index="1" Min="-3.1410038471221924e+00" Max="3.1380097866058350e+00"/>
          <Range Index="2" Min="-3.6573362350463867e+00" Max="3.8082675933837891e+00"/>
          <Range Index="3" Min="1.0574226379394531e+02" Max="1.3999739074707031e+02"/>
          <Range Index="4" Min="5.0288349151611328e+01" Max="9.4814898681640625e+02"/>
          <Range Index="5" Min="-3.9679558277130127e+00" Max="4.0951924324035645e+00"/>
          <Range Index="6" Min="-3.1383726596832275e+00" Max="3.1407830715179443e+00"/>
          <Range Index="7" Min="5.5005636215209961e+00" Max="1.9308091735839844e+02"/>
          <Range Index="8" Min="-2.0000000000000000e+00" Max="9.9989116191864014e-01"/>
          <Range Index="9" Min="3.4833980560302734e+01" Max="8.3008666992187500e+02"/>
          <Range Index="10" Min="-4.1252312660217285e+00" Max="4.0373120307922363e+00"/>
          <Range Index="11" Min="-3.1395680904388428e+00" Max="3.1394064426422119e+00"/>
          <Range Index="12" Min="3.1213419437408447e+00" Max="1.0542956542968750e+02"/>
          <Range Index="13" Min="-2.0000000000000000e+00" Max="9.9978190660476685e-01"/>
          <Range Index="14" Min="3.0620601654052734e+01" Max="3.7184164428710938e+02"/>
          <Range Index="15" Min="-4.4427413940429688e+00" Max="4.4377865791320801e+00"/>
          <Range Index="16" Min="-3.1336953639984131e+00" Max="3.1381971836090088e+00"/>
          <Range Index="17" Min="2.7168896198272705e+00" Max="4.9835323333740234e+01"/>
          <Range Index="18" Min="-2.0000000000000000e+00" Max="9.9971723556518555e-01"/>
          <Range Index="19" Min="3.0031280517578125e+01" Max="1.9518855285644531e+02"/>
          <Range Index="20" Min="-4.5524392127990723e+00" Max="4.5320854187011719e+00"/>
          <Range Index="21" Min="-3.1305818557739258e+00" Max="3.1407423019409180e+00"/>
          <Range Index="22" Min="2.2202816009521484e+00" Max="4.2471450805664062e+01"/>
          <Range Index="23" Min="-2.0000000000000000e+00" Max="9.9980020523071289e-01"/>
        </Ranges>
      </Class>
      <Class ClassIndex="2">
        <Ranges>
          <Range Index="0" Min="3.2337133884429932e+00" Max="9.2798907470703125e+02"/>
          <Range Index="1" Min="-3.1410038471221924e+00" Max="3.1414506435394287e+00"/>
          <Range Index="2" Min="-4.0894112586975098e+00" Max="3.8082675933837891e+00"/>
          <Range Index="3" Min="1.0506743621826172e+02" Max="1.3999739074707031e+02"/>
          <Range Index="4" Min="4.1948322296142578e+01" Max="9.8833673095703125e+02"/>
          <Range Index="5" Min="-3.9679558277130127e+00" Max="4.1808528900146484e+00"/>
          <Range Index="6" Min="-3.1415700912475586e+00" Max="3.1407830715179443e+00"/>
          <Range Index="7" Min="4.7813186645507812e+00" Max="1.9308091735839844e+02"/>
          <Range Index="8" Min="-2.0000000000000000e+00" Max="9.9989116191864014e-01"/>
          <Range Index="9" Min="3.3928981781005859e+01" Max="8.3008666992187500e+02"/>
          <Range Index="10" Min="-4.1517009735107422e+00" Max="4.4359889030456543e+00"/>
          <Range Index="11" Min="-3.1395680904388428e+00" Max="3.1394064426422119e+00"/>
          <Range Index="12" Min="3.1213419437408447e+00" Max="1.0862127685546875e+02"/>
          <Range Index="13" Min="-2.0000000000000000e+00" Max="9.9981015920639038e-01"/>
          <Range Index="14" Min="3.0366271972656250e+01" Max="3.7184164428710938e+02"/>
          <Range Index="15" Min="-4.4947857856750488e+00" Max="4.6399254798889160e+00"/>
          <Range Index="16" Min="-3.1403892040252686e+00" Max="3.1404032707214355e+00"/>
          <Range Index="17" Min="2.7168896198272705e+00" Max="4.9835323333740234e+01"/>
          <Range Index="18" Min="-2.0000000000000000e+00" Max="9.9985140562057495e-01"/>
          <Range Index="19" Min="3.0000886917114258e+01" Max="2.0349107360839844e+02"/>
          <Range Index="20" Min="-4.5524392127990723e+00" Max="4.5320854187011719e+00"/>
          <Range Index="21" Min="-3.1413247585296631e+00" Max="3.1412479877471924e+00"/>
          <Range Index="22" Min="2.2202816009521484e+00" Max="4.2471450805664062e+01"/>
          <Range Index="23" Min="-2.0000000000000000e+00" Max="9.9980020523071289e-01"/>
        </Ranges>
      </Class>
    </Transform>
  </Transformations>
  <MVAPdfs/>
  <Weights>
    <Layout NLayers="3">
      <Layer Index="0" NNeurons="25">
        <Neuron NSynapses="29">
          -6.8157584959352879e-01 1.8421636682803399e+00 9.6307747159700341e-01 1.9624579886426488e+00 -2.4225531251981089e+00 -1.1874214859108767e+00 -2.7862045210570396e-01 2.6624604355426591e+00 -2.8005395896856191e+00 -2.4284761589119759e+00 -1.1451218540696826e+00 -9.2848254094729221e-01 -8.6011785633165305e-01 -5.3048919865214639e-01 -4.3356483721218066e-02 -3.9616230230208174e-02 -6.0922045463570984e-01 2.9774340348627302e+00 3.8395146632013782e-01 3.4245935083115442e+00 -3.8898235492563709e+00 2.9147964972392204e-01 -4.1608080385237339e-01 5.4723849211144121e-02 1.1054383735127596e-01 -7.1734749519520524e-01 1.3835781447780795e+00 -1.4524436590519534e+00 -1.7065902415111407e+00 
        </Neuron>
        <Neuron NSynapses="29">
          -1.8390137988896982e+00 6.4385452115207076e-01 1.3657333174056758e+00 -4.6797766180085326e-01 6.5850104557329636e-01 -3.9265227573016662e-02 3.8798225740237552e-01 -1.5491691790024860e+00 4.2741864648247102e-01 -9.9937252681182143e-02 2.0365716420662414e+00 2.0839436660861659e+00 9.9829999804756242e-01 8.0570453579174361e-01 1.9606104150731283e+00 -1.0768198203022892e+00 -1.9763662169940730e+00 2.0494020294908430e-01 -2.1674955927999279e-01 8.3362743565982145e-01 8.4786642625003661e-01 1.3147214012953008e+00 1.5562968049320576e+00 -1.4740136561600956e+00 2.7011890953909554e+00 -2.1247827333746856e+00 -1.2533900353604335e+00 -1.1519458281260093e+00 -5.8351451229242857e-01 
        </Neuron>
        <Neuron NSynapses="29">
          1.7631191347840616e+00 -3.1994385159544718e-02 -2.0858653609158000e+00 -1.0506077136672044e-01 1.2707203671339048e-01 3.0647583376773757e-01 2.5861180778873747e+00 -5.7475303232325836e-01 -5.8392911273304662e-02 -1.1765336395740544e+00 -1.0695094388691140e-01 -4.9251315485191599e-01 -6.5519855239222413e-01 -9.2394364135821350e-01 5.8750493795345061e-02 1.6034244424095991e+00 1.5387889364489591e+00 2.4862046811714192e-01 -1.1358330132097867e+00 -1.1998111091769257e+00 2.1511100194256928e-02 -2.0441791569857390e-01 8.3323542658823957e-01 3.1715892051134578e-02 1.5916577066512605e+00 -3.4902491702342020e-01 -2.3855685235112020e-01 -4.8114573463993032e-01 -1.0484323071493493e-01 
        </Neuron>
        <Neuron NSynapses="29">
          1.1927439400607850e-02 -4.0825673449078365e-01 -1.0186387334269966e+00 -3.5459088680996131e-01 2.5263807728897941e-01 1.6680476923290060e+00 -1.2838839756664668e+00 -1.1714434595696952e+00 8.5107989432461040e-01 -1.1485639761565014e+00 -2.5576349095795226e+00 -2.6071841382750995e+00 -6.4522776630166123e-03 -2.3693344686051301e+00 -1.4384818374296144e+00 -2.3588897655191279e-01 2.5956195283554506e+00 -5.1488118888219792e-01 1.8746830460520729e+00 -1.7948494066283707e+00 -1.7388807513440279e+00 -6.0963750077541579e-01 -1.1131658284331658e+00 -1.4936605542377832e+00 9.5120032628683648e-01 7.8723924378611171e-02 3.4676447390306236e-01 3.6751358181141075e-01 2.0843557433288500e+00 
        </Neuron>
        <Neuron NSynapses="29">
          1.2192544531459524e+00 -7.7320394616120391e-01 9.8405030631817225e-01 -5.8471187819836612e-01 -1.8519906410224583e+00 7.8785087712947111e-01 -5.8105717319536665e-01 3.0534221889681334e+00 7.1125791596167320e-01 -1.3802492591965360e-01 -4.6470107117060422e-01 2.3890983315046363e-01 -1.5925103724066023e+00 2.7952570786406145e-01 5.0947594028693610e-01 -2.2747905302887004e+00 2.4103800861324248e-01 -2.7558555362164632e+00 -9.3501425983494299e-02 1.1069274979768674e-01 3.3415223786259101e+00 -1.6674585333036451e+00 6.8051499705917270e-02 1.3110618911967178e+00 1.4937065354183301e+00 8.0949608655688743e-01 -7.8154172835285385e-01 1.4920343208950402e+00 -2.7721248382064401e-01 
        </Neuron>
        <Neuron NSynapses="29">
          2.5853965262288607e+00 9.8344537135065513e-01 -5.7111091734583719e-01 -7.5558775922137278e-01 -1.8358325474739681e+00 -1.9649624143710611e+00 1.8595508847647688e-01 1.2885858082942421e+00 -4.1902618167642891e-01 -7.2416928784377965e-01 -6.0432485196515418e-01 -1.7696711793413950e-01 5.7442063709520952e-01 5.1777463353939124e-01 -1.2885658729724134e+00 2.0928928568189127e+00 1.1282133586940453e+00 2.0865826116497757e+00 1.4675868694582250e+00 1.5061557323793375e+00 1.0351260650198619e+00 -1.1612201634633423e+00 1.6503324715250358e+00 -8.9896172196372570e-01 -5.7063846646950533e-01 5.4906610663699285e-01 1.6018328830977244e+00 3.0783679040908729e-01 2.1882922577934698e+00 
        </Neuron>
        <Neuron NSynapses="29">
          2.5169644407141618e+00 -1.4995620514852259e+00 -9.8025153492517925e-01 -4.6507678686494258e-01 3.3697408859675598e-01 -1.1096722199516771e+00 -1.0874607379599821e+00 -2.7053591408817912e-01 2.3717139854219917e+00 -1.2936396069628979e+00 -7.4873728960037467e-02 -3.0667522110645756e-01 5.8430735467333006e-01 2.2483103507429867e+00 -5.9184841486632900e-01 -8.8184107465967487e-01 -3.8439083717218459e-01 4.6007207833319375e-01 1.7807835355949120e+00 3.8945517361944731e-01 -4.1456438507937782e-01 -4.7912597416458691e-01 -1.3141288282858825e+00 1.8804787003505094e-01 3.8787955138767377e-01 -8.8423062383385420e-01 -3.5202490692372351e-01 2.1101600882612126e+00 -5.6193510936549451e-01 
        </Neuron>
        <Neuron NSynapses="29">
          -1.8136205962924745e+00 1.5563716770084328e+00 9.6311642691836818e-01 1.4611876918855202e-01 -2.8612861396834360e-01 1.9029307691835697e+00 9.6410255976745718e-01 6.0875289900613994e-01 -1.3133148494968985e-01 -1.5222499087777126e+00 -1.8233863991212518e+00 1.4959095727117282e+00 1.5702259031270238e+00 1.1911110305073770e-01 5.5348840142749844e-01 1.7607418866924991e+00 -2.1267344967900996e+00 -1.6376472609603709e+00 -4.1914473418799469e-01 -1.5987949187265140e+00 1.1336581201565161e+00 1.8114851483646803e+00 -1.8143223587142963e+00 1.0635474813189840e+00 -3.3009299994660912e-01 -1.3192204004229375e+00 -6.9173087720520487e-01 1.2816854997598188e+00 4.9832241045140901e-01 
        </Neuron>
        <Neuron NSynapses="29">
          1.1108385065409032e+00 -1.9839712563471128e+00 2.5178496806308086e+00 -1.2236076240667246e+00 8.8946535422069228e-01 1.8861986142023857e-01 -2.4893015762402579e+00 -1.3414414767927181e+00 -1.7895539589956491e+00 -2.0408582898285249e-01 -1.8514113423370138e+00 -1.6419678948486705e+00 -8.4527898531821832e-01 -2.1120723153356535e-01 -1.4265573485098511e+00 -2.3467067793546690e+00 2.7811219530447642e+00 -9.5220441198060068e-01 9.1302829331830448e-01 -1.5369110570180424e+00 -3.9111630377266721e-01 1.1107066271795338e+00 1.5114677797596046e+00 -1.2621370850649678e+00 -1.1179392197994460e+00 -2.4652653457353474e-01 -3.2771683759556830e-01 6.3171355698142173e-01 3.3921989136603820e-01 
        </Neuron>
        <Neuron NSynapses="29">
          -5.4303333359450512e-01 1.6866861237579782e+00 -7.2901221970292507e-01 7.9519223845231046e-01 -4.2748005261807609e-01 -1.2312316193151878e+00 1.5576276763602213e+00 7.4835787836889267e-01 -6.4368106259162894e-01 -7.6748901004334780e-01 5.7178009431943599e-01 1.7447302960206774e+00 8.8002309825993941e-01 -1.1827717511412397e+00 2.6394239401687697e-02 1.5021270710579591e+00 2.5449199455601168e-01 9.6938281163051465e-01 -2.9345434487905486e-01 -3.4597222334921474e-01 1.9933774361400158e-01 -1.0953655004220229e+00 -1.2223927541142454e+00 -1.5363074355734021e+00 -2.1090689492449233e+00 -1.8465774873001606e+00 2.4472114592075935e+00 -8.0601332431472117e-01 1.9453451410772695e+00 
        </Neuron>
        <Neuron NSynapses="29">
          -4.1662533723885140e+00 1.2008704321008694e+00 -1.0744345333473817e+00 -1.8826123167130504e-01 1.5064027881945470e+00 -3.0175874803643694e+00 -6.9393217833695875e-01 -1.0488246872672710e-01 -1.9928958513404991e+00 -2.0967845900307478e+00 -1.3668322682523069e+00 -2.2600005640388714e+00 2.2680315331061687e+00 -5.9270894077935332e-01 1.0360850562983993e-01 -5.8151317383917556e-01 -1.2545373178247785e+00 -3.0486689118845569e+00 -1.4838330737556875e+00 -1.6295615526953118e+00 9.1310585209715112e-01 -2.3850434223896797e+00 -3.4499961326352175e+00 2.0647228857506295e+00 -4.5723089732239336e-01 -1.0913009007785113e+00 9.8208206230270767e-01 -9.7149935604003468e-01 2.0094867272787744e+00 
        </Neuron>
        <Neuron NSynapses="29">
          5.0683597034357109e-01 -8.8392035963099269e-01 -2.3880657902026594e+00 1.7594098421120605e-01 -1.0883887906068308e+00 7.7446833440159402e-01 4.5750765101084889e-01 1.7178931513605415e+00 2.3323954245556093e+00 -5.1369935177360249e-01 7.3135170286531603e-01 -2.7702081910887841e+00 6.6311684356226452e-01 -1.7482819972656620e+00 -1.7307534546505081e+00 -5.8853094486828861e-01 2.1027876377624071e+00 3.4655341098640646e-01 1.5237954537915872e+00 -2.2855682321444326e-01 -4.0995479459302259e-01 -5.1348081618540653e-01 -4.3109848801759859e-01 2.0873523014599886e+00 -1.4043304210373873e+00 -6.2367912179609013e-02 -1.3312861969526268e+00 6.8895749511859700e-02 -1.0511061728167765e+00 
        </Neuron>
        <Neuron NSynapses="29">
          3.3364602359231976e-01 -1.8196787309410727e+00 1.2722092721098479e+00 2.2750900432147949e+00 5.6702807727721749e-01 3.9186567302433728e-01 -2.8688020782751267e-01 -1.3778644526543073e+00 -1.7121215312168472e+00 9.1188021797808960e-01 -1.1656503146633619e+00 -5.1358238397183031e-01 1.1626003856503979e+00 -2.5338157680719351e+00 -7.7152443111424607e-01 -1.3075502390510430e+00 -1.6818927514465520e-01 -3.6830634818881436e-01 -2.4912199667112862e+00 -2.7728204739131242e-02 -1.7741532659851080e+00 -2.0074463022218025e+00 7.7051738118279289e-01 -7.2287942130401051e-01 -8.8950386261118464e-01 1.1643449502920440e+00 1.0632003684069498e+00 7.6765189100907960e-01 -3.8401856971851572e-01 
        </Neuron>
        <Neuron NSynapses="29">
          1.0150438071847903e+00 2.1043825577602466e+00 5.7401767095102652e-01 -1.4107792702429245e+00 -1.9366853569625317e-01 -2.0226505106274315e+00 -4.1951527065747751e-01 -4.9187409071600030e-01 -7.5287311228111520e-01 1.1591656131192123e+00 6.7332969682143617e-01 1.5108889008576789e+00 -1.6594779542988560e+00 1.3022269471179242e+00 7.3978143484710446e-01 -1.0892816332114663e+00 -1.4757851975423646e+00 -5.6631071179401093e-01 7.6141606327225198e-01 1.5331090990880045e+00 2.3950413405041385e-01 1.5102861390374331e+00 -4.6514841165322540e-01 1.0622503761150646e+00 5.0756156260050145e-01 1.0512761871460825e+00 -1.2517565383006095e+00 1.2812433620470731e+00 -8.7552032611453579e-01 
        </Neuron>
        <Neuron NSynapses="29">
          6.6839064326481867e-01 1.2649584919200825e+00 -4.7578875873073972e-01 -2.3314882036475892e-01 -1.5164235241442064e-01 -1.0585818855102496e+00 5.8279379348112281e-01 -1.0006028208275053e+00 -4.4213931608165630e-01 -2.9729546707614635e-01 1.4367180175525223e+00 1.5598763041360812e+00 1.9590221115334765e+00 -1.5460504591490165e+00 -2.9314173096028057e-01 4.5259963823382460e-01 1.5816797282440285e+00 -1.2542955517308245e+00 -1.1680116274529446e+00 -8.5337354595649451e-01 -6.2309509178825218e-01 -1.7596275194598425e+00 -1.7245093788036225e+00 8.4923672048575660e-01 -2.1505623397937029e-01 -1.7903756425288291e+00 -1.8035739194101177e+00 8.6052136081580144e-01 1.7237726088229788e+00 
        </Neuron>
        <Neuron NSynapses="29">
          9.4093291294290970e-01 6.0974696903414660e-01 -4.3595400021099245e-01 -2.2106786262588241e+00 -3.4904000427897486e-01 -1.5394612313208955e+00 -3.2660333947231019e+00 -1.0417675799479800e+00 8.1513385434664387e-01 -6.9526409862666716e-01 2.0082531789965392e+00 1.6974603741359497e+00 -6.8596348562305037e-02 4.1974503563813648e-01 -7.5619051792132175e-01 2.1331014006467872e+00 -2.3885096135612457e-01 1.1669159676685827e-01 1.4700397174498894e+00 1.7553931443377876e-01 4.9948352226625858e-01 2.1672627481205398e+00 -1.6117290474772610e+00 1.5865963309944036e+00 1.4177815430193532e+00 2.7741890828820059e-01 -9.4899333370250183e-01 4.7628079860136285e-01 3.8968638161962571e-01 
        </Neuron>
        <Neuron NSynapses="29">
          5.3860120547486012e-01 2.0054590178829206e+00 -9.7274452115531940e-01 -1.8710941139823376e+00 -1.5048389942111418e+00 1.6343053971093029e+00 3.5739190026782491e-01 -1.2431978761830993e+00 -2.8280451916191057e-01 2.7775599991309168e+00 -4.5014701146303532e-01 -1.1749408043400555e+00 3.2891546040486769e-01 -7.8937312886242805e-01 1.1169054844846804e+00 1.1870505053930593e+00 2.4954153506880983e-01 -4.5966776354082239e-01 1.3579770638365354e+00 1.5866549046349534e+00 -1.1034495027576068e-01 -8.7904931523678523e-02 -4.8055659841891629e-01 -9.7622481251313520e-01 1.0626488071019584e+00 -8.9838941949654505e-01 1.4619503409467455e-01 -2.3860546850438751e+00 -8.4527273083454013e-01 
        </Neuron>
        <Neuron NSynapses="29">
          -1.4907287743807456e+00 -1.0364515130786767e+00 -1.2547361391847986e+00 1.3411678428949629e+00 7.8825326357997849e-01 1.7119065870731858e+00 1.6703871886154191e+00 -9.7288622736457120e-01 8.4439701016622715e-01 2.1531166049970931e+00 6.2422142063282782e-01 3.1849853571183806e-01 -5.3520188556932380e-01 1.2955392663659460e+00 -1.5027032172034662e+00 8.4208516922714249e-01 -9.4178294026602727e-01 1.4415911115664324e+00 -4.4877550636781377e-01 3.4376725155893684e-02 4.6383123663679443e-01 9.2072160233539563e-02 -6.4020541323560831e-01 -1.0644283893052773e+00 7.7820304051855205e-01 1.8808196915252282e+00 -1.0076432787808456e-01 7.9078204332412660e-01 -1.2434412233721510e+00 
        </Neuron>
        <Neuron NSynapses="29">
          1.3978518184856192e+00 -2.3401108017168708e+00 1.0952346047813959e+00 3.4622260789748921e-01 1.6232963028662175e+00 1.4094805208288248e+00 2.1044576138286346e+00 -2.1803300479562546e+00 -8.9650612703176524e-01 -8.1268497614558377e-01 1.3387724626321711e+00 -2.0618199827345107e-01 -1.9175772500852947e-01 -8.7215097197556346e-01 -7.0791242655384090e-01 -1.0028653721356591e-01 1.1812560551505431e-01 -1.9372439641829806e+00 6.7228790758731638e-01 1.4419423140426890e-01 -1.0389360491702362e+00 -4.9915281174249143e-01 7.6859347010650603e-01 -4.3602585327755294e-01 5.7127413692106527e-02 -1.7774735920357598e+00 1.7181789144141604e+00 -2.2944108024409807e-01 2.3238958932308826e-01 
        </Neuron>
        <Neuron NSynapses="29">
          1.4521326814653177e+00 -1.1133395817667722e+00 -9.4685383858741567e-01 4.9036595724118781e-01 -2.1969241473137879e+00 -1.1678907767125177e+00 -1.0170751259181772e+00 1.8421681142783166e+00 -1.4462998429526710e+00 1.5102696548944667e+00 1.2264497002789778e+00 5.9197042698711644e-01 1.2752227300133554e+00 -7.5905527731494093e-01 1.2813775993090168e-01 -3.6724873020166687e-01 -2.0325938388742109e+00 2.7091187325213761e-01 3.3885017792755608e-02 1.2046028474049459e+00 1.2821486876541048e+00 -7.4399857320977969e-01 1.6257328233410744e+00 1.1582082335868098e+00 -1.4830859353221935e+00 -3.8922877985751492e-01 -2.0562248817815760e+00 2.3496775103299322e-01 -2.3265685090265618e+00 
        </Neuron>
        <Neuron NSynapses="29">
          -2.3005336255004569e-01 5.1274519288068487e-01 1.4060936581021461e+00 -1.9059293484902116e+00 -3.9051060235046786e-01 -1.1086251277840062e+00 2.4407311911923033e+00 1.8541135366991740e-01 2.1158537322112761e-01 4.5220737750486301e-01 -1.7020849038344090e+00 8.0842087852802702e-01 -3.3816095308338012e-01 1.3853431802065779e+00 -1.4101493930797162e+00 -3.0899024985208731e-02 2.0919663123660719e+00 -1.1670059008175087e+00 -1.5530433601453426e+00 -4.9757354112947938e-01 2.1997511300296466e+00 2.1866036301794054e+00 1.2968350287913569e-01 -3.0897278002727471e+00 5.6072580437028952e-01 7.3385571690771867e-01 5.2917514222922213e-01 -5.3440259343228158e-01 -2.9883951643696149e+00 
        </Neuron>
        <Neuron NSynapses="29">
          -5.6200113509626892e-01 -7.7311149301993276e-01 6.7025017442381130e-01 -1.2936289644788768e-01 -2.8579375938330437e-01 -1.1105692943149295e+00 8.9647375867127821e-01 -3.5514233065554929e-01 2.1693249875153029e+00 2.9759292703906776e-02 -4.3257167445808453e-01 6.9798242127506971e-01 4.9859070129234567e-01 9.7976393792625682e-01 -3.3948388227914061e-01 -1.8627001082656480e-01 -1.2452991791118191e+00 -1.0010770175592481e+00 2.4897395103934397e-01 -9.4873577740745485e-01 -6.9771103297788267e-02 1.6115664633567744e-01 9.1772147381128169e-02 1.6298069487210096e+00 -2.7401013735047077e+00 -1.7577993688028242e+00 1.9250096630487809e-01 -1.2539065682061810e+00 8.9453402668633150e-02 
        </Neuron>
        <Neuron NSynapses="29">
          1.4745562876951130e+00 -1.6677471713013652e+00 -1.2704541169036168e+00 -5.8423093251775138e-01 1.6107760018974926e-01 7.0235157758660260e-01 -1.3915224063876090e+00 -4.6749716646139916e-01 -1.3104931231899304e+00 1.9628221364119116e+00 -1.9684197320606533e-01 1.3496510936441737e+00 5.9202628238594923e-01 -1.9406478986659279e+00 -1.1920346446067276e+00 -1.3374957437060226e+00 -3.5412003280102250e-01 4.8314644645611519e-02 1.3684519454435844e+00 -1.7552900328668357e+00 3.5531700771723407e-01 -2.8791561827524348e-01 -1.5155720730301785e+00 1.6883034134629411e+00 1.0610896338732974e+00 -1.7486817636066663e+00 -1.1244646578849034e+00 -2.5220158810496867e+00 3.4945674926092640e-01 
        </Neuron>
        <Neuron NSynapses="29">
          1.5088138615640510e+00 6.6405959929001102e-01 4.8566168530500808e-01 -1.5482895127083161e+00 -5.8216621674920677e-01 -2.3517641176023923e-01 -8.9846827087929115e-01 2.7623312212490942e+00 -1.3376593465583031e+00 3.1934368634423937e+00 4.3528995275766502e-01 -4.3275254985045902e-01 -1.8994651030191612e+00 6.4892914926349721e-01 -1.4004267236656484e-01 1.8200344588763644e+00 -5.0024183554108681e-01 -1.3394049423324224e+00 1.6744007128447713e+00 5.1563416684349384e-01 -1.4391706104865616e+00 -1.1886470123153334e+00 -2.1346729288111108e+00 5.6382579187137338e-01 -4.8390319029467616e-01 1.9889034835026437e-01 1.2303713250085759e-01 1.6844537143561964e+00 -1.9123154964220959e-01 
        </Neuron>
        <Neuron NSynapses="29">
          1.6942429909799974e+00 2.6165661636267923e-01 -6.7229603602850241e-01 -5.9421370744175550e-01 6.0054008516628410e-01 1.3412610986803006e+00 -2.1725260810265720e-01 -2.2091813197001100e+00 -8.0208242937869167e-01 -1.0277605120398310e+00 -2.5661877340005895e-01 -8.8409998555845559e-01 -3.7560540327777375e-01 1.2651497141331043e+00 -9.9657534284890348e-01 1.3379935952732762e+00 2.5010481365469923e+00 8.9081004433733804e-02 -9.0147456884979782e-01 3.3692747115841537e-01 1.8113957045270705e+00 -2.2763350221573533e+00 2.0132026491504247e+00 -1.0920009921366991e+00 2.6467153961121398e-01 2.2655735255620537e+00 -2.1131607937309602e+00 -8.7569870749975853e-01 1.3213643303468341e+00 
        </Neuron>
      </Layer>
      <Layer Index="1" NNeurons="30">
        <Neuron NSynapses="1">
          1.1255896796954798e+00 
        </Neuron>
        <Neuron NSynapses="1">
          5.1776444775966290e-01 
        </Neuron>
        <Neuron NSynapses="1">
          -6.5961658723115968e-01 
        </Neuron>
        <Neuron NSynapses="1">
          6.0565962507730864e-01 
        </Neuron>
        <Neuron NSynapses="1">
          2.5888853829134773e+00 
        </Neuron>
        <Neuron NSynapses="1">
          2.7079446888330511e-01 
        </Neuron>
        <Neuron NSynapses="1">
          -6.9507781120630996e-01 
        </Neuron>
        <Neuron NSynapses="1">
          2.7512871691741938e+00 
        </Neuron>
        <Neuron NSynapses="1">
          4.4612574943654099e-01 
        </Neuron>
        <Neuron NSynapses="1">
          5.0705658488102345e-01 
        </Neuron>
        <Neuron NSynapses="1">
          5.1692882512911986e-01 
        </Neuron>
        <Neuron NSynapses="1">
          -2.0588289101998134e+00 
        </Neuron>
        <Neuron NSynapses="1">
          5.6248235510295497e-01 
        </Neuron>
        <Neuron NSynapses="1">
          -1.6425651206029199e+00 
        </Neuron>
        <Neuron NSynapses="1">
          2.2910503259282614e-01 
        </Neuron>
        <Neuron NSynapses="1">
          -4.7862468406168107e-01 
        </Neuron>
        <Neuron NSynapses="1">
          -2.7343445334519134e+00 
        </Neuron>
        <Neuron NSynapses="1">
          -5.5346657258353171e-01 
        </Neuron>
        <Neuron NSynapses="1">
          -1.1631529681630797e+00 
        </Neuron>
        <Neuron NSynapses="1">
          -4.5158636863559282e-01 
        </Neuron>
        <Neuron NSynapses="1">
          8.8891948344625693e-01 
        </Neuron>
        <Neuron NSynapses="1">
          5.1184679421989843e-01 
        </Neuron>
        <Neuron NSynapses="1">
          3.0364938450943106e+00 
        </Neuron>
        <Neuron NSynapses="1">
          -5.5735285630861420e-01 
        </Neuron>
        <Neuron NSynapses="1">
          -5.0893235356905819e-01 
        </Neuron>
        <Neuron NSynapses="1">
          -1.9889839785514511e+00 
        </Neuron>
        <Neuron NSynapses="1">
          6.0601472473364471e-01 
        </Neuron>
        <Neuron NSynapses="1">
          5.3204776426344813e-01 
        </Neuron>
        <Neuron NSynapses="1">
          4.8241699577684743e-01 
        </Neuron>
        <Neuron NSynapses="1">
          1.2565532788253009e+00 
        </Neuron>
      </Layer>
      <Layer Index="2" NNeurons="1">
        <Neuron NSynapses="0"/>
      </Layer>
    </Layout>
  </Weights>
</MethodSetup>
