<?xml version="1.0"?>
<MethodSetup Method="MLP::MLP">
  <GeneralInfo>
    <Info name="TMVA Release" value="4.2.1 [262657]"/>
    <Info name="ROOT Release" value="6.19/01 [398081]"/>
    <Info name="Creator" value="renqi"/>
    <Info name="Date" value="Wed Jul 10 20:07:26 2019"/>
    <Info name="Host" value="Linux renqi-ubuntu 4.15.0-50-generic #54-Ubuntu SMP Mon May 6 18:46:08 UTC 2019 x86_64 x86_64 x86_64 GNU/Linux"/>
    <Info name="Dir" value="/home/renqi/Documents/tth_CMS/HZZ"/>
    <Info name="Training events" value="3750"/>
    <Info name="TrainingTime" value="4.80742908e+00"/>
    <Info name="AnalysisType" value="Classification"/>
  </GeneralInfo>
  <Options>
    <Option name="NCycles" modified="Yes">100</Option>
    <Option name="HiddenLayers" modified="Yes">N+5</Option>
    <Option name="NeuronType" modified="Yes">tanh</Option>
    <Option name="RandomSeed" modified="No">1</Option>
    <Option name="EstimatorType" modified="No">CE</Option>
    <Option name="NeuronInputType" modified="No">sum</Option>
    <Option name="V" modified="Yes">False</Option>
    <Option name="VerbosityLevel" modified="No">Default</Option>
    <Option name="VarTransform" modified="Yes">N</Option>
    <Option name="H" modified="Yes">False</Option>
    <Option name="CreateMVAPdfs" modified="No">False</Option>
    <Option name="IgnoreNegWeightsInTraining" modified="No">False</Option>
    <Option name="TrainingMethod" modified="No">BP</Option>
    <Option name="LearningRate" modified="No">2.000000e-02</Option>
    <Option name="DecayRate" modified="No">1.000000e-02</Option>
    <Option name="TestRate" modified="Yes">5</Option>
    <Option name="EpochMonitoring" modified="No">False</Option>
    <Option name="Sampling" modified="No">1.000000e+00</Option>
    <Option name="SamplingEpoch" modified="No">1.000000e+00</Option>
    <Option name="SamplingImportance" modified="No">1.000000e+00</Option>
    <Option name="SamplingTraining" modified="No">True</Option>
    <Option name="SamplingTesting" modified="No">False</Option>
    <Option name="ResetStep" modified="No">50</Option>
    <Option name="Tau" modified="No">3.000000e+00</Option>
    <Option name="BPMode" modified="No">sequential</Option>
    <Option name="BatchSize" modified="No">-1</Option>
    <Option name="ConvergenceImprove" modified="No">1.000000e-30</Option>
    <Option name="ConvergenceTests" modified="No">-1</Option>
    <Option name="UseRegulator" modified="Yes">False</Option>
    <Option name="UpdateLimit" modified="No">10000</Option>
    <Option name="CalculateErrors" modified="No">False</Option>
    <Option name="WeightRange" modified="No">1.000000e+00</Option>
  </Options>
  <Variables NVar="25">
    <Variable VarIndex="0" Expression="ExtraLepPt1" Label="ExtraLepPt1" Title="ExtraLepPt1" Unit="" Internal="ExtraLepPt1" Type="F" Min="5.41393185e+00" Max="5.35348877e+02"/>
    <Variable VarIndex="1" Expression="ExtraLepPhi1" Label="ExtraLepPhi1" Title="ExtraLepPhi1" Unit="" Internal="ExtraLepPhi1" Type="F" Min="-3.13891387e+00" Max="3.14157319e+00"/>
    <Variable VarIndex="2" Expression="ExtraLepEta1" Label="ExtraLepEta1" Title="ExtraLepEta1" Unit="" Internal="ExtraLepEta1" Type="F" Min="-2.46760082e+00" Max="2.46731663e+00"/>
    <Variable VarIndex="3" Expression="LepPt[0]" Label="LepPt[0]" Title="LepPt[0]" Unit="" Internal="LepPt_0_" Type="F" Min="5.30849552e+00" Max="5.19481262e+02"/>
    <Variable VarIndex="4" Expression="LepPhi[0]" Label="LepPhi[0]" Title="LepPhi[0]" Unit="" Internal="LepPhi_0_" Type="F" Min="-3.14147687e+00" Max="3.14089656e+00"/>
    <Variable VarIndex="5" Expression="LepEta[0]" Label="LepEta[0]" Title="LepEta[0]" Unit="" Internal="LepEta_0_" Type="F" Min="-2.40008807e+00" Max="2.42806220e+00"/>
    <Variable VarIndex="6" Expression="LepPt[1]" Label="LepPt[1]" Title="LepPt[1]" Unit="" Internal="LepPt_1_" Type="F" Min="5.33885813e+00" Max="5.55176941e+02"/>
    <Variable VarIndex="7" Expression="LepPhi[1]" Label="LepPhi[1]" Title="LepPhi[1]" Unit="" Internal="LepPhi_1_" Type="F" Min="-3.14034319e+00" Max="3.14096498e+00"/>
    <Variable VarIndex="8" Expression="LepEta[1]" Label="LepEta[1]" Title="LepEta[1]" Unit="" Internal="LepEta_1_" Type="F" Min="-2.49959016e+00" Max="2.48085356e+00"/>
    <Variable VarIndex="9" Expression="LepPt[2]" Label="LepPt[2]" Title="LepPt[2]" Unit="" Internal="LepPt_2_" Type="F" Min="5.03894424e+00" Max="3.22182800e+02"/>
    <Variable VarIndex="10" Expression="LepPhi[2]" Label="LepPhi[2]" Title="LepPhi[2]" Unit="" Internal="LepPhi_2_" Type="F" Min="-3.14065456e+00" Max="3.14088893e+00"/>
    <Variable VarIndex="11" Expression="LepEta[2]" Label="LepEta[2]" Title="LepEta[2]" Unit="" Internal="LepEta_2_" Type="F" Min="-2.44506907e+00" Max="2.46844840e+00"/>
    <Variable VarIndex="12" Expression="LepPt[3]" Label="LepPt[3]" Title="LepPt[3]" Unit="" Internal="LepPt_3_" Type="F" Min="5.00299788e+00" Max="3.19982513e+02"/>
    <Variable VarIndex="13" Expression="LepPhi[3]" Label="LepPhi[3]" Title="LepPhi[3]" Unit="" Internal="LepPhi_3_" Type="F" Min="-3.13896894e+00" Max="3.14129400e+00"/>
    <Variable VarIndex="14" Expression="LepEta[3]" Label="LepEta[3]" Title="LepEta[3]" Unit="" Internal="LepEta_3_" Type="F" Min="-2.48610783e+00" Max="2.45381951e+00"/>
    <Variable VarIndex="15" Expression="JetPt1" Label="JetPt1" Title="JetPt1" Unit="" Internal="JetPt1" Type="F" Min="3.11188354e+01" Max="7.81105652e+02"/>
    <Variable VarIndex="16" Expression="JetEta1" Label="JetEta1" Title="JetEta1" Unit="" Internal="JetEta1" Type="F" Min="-3.89104605e+00" Max="4.62289000e+00"/>
    <Variable VarIndex="17" Expression="JetPhi1" Label="JetPhi1" Title="JetPhi1" Unit="" Internal="JetPhi1" Type="F" Min="-3.14146161e+00" Max="3.14074087e+00"/>
    <Variable VarIndex="18" Expression="JetMass1" Label="JetMass1" Title="JetMass1" Unit="" Internal="JetMass1" Type="F" Min="4.14227629e+00" Max="1.78481705e+02"/>
    <Variable VarIndex="19" Expression="JetBTagger1" Label="JetBTagger1" Title="JetBTagger1" Unit="" Internal="JetBTagger1" Type="F" Min="-2.00000000e+00" Max="9.99846399e-01"/>
    <Variable VarIndex="20" Expression="JetPt2" Label="JetPt2" Title="JetPt2" Unit="" Internal="JetPt2" Type="F" Min="-9.99000000e+02" Max="3.56593109e+02"/>
    <Variable VarIndex="21" Expression="JetEta2" Label="JetEta2" Title="JetEta2" Unit="" Internal="JetEta2" Type="F" Min="-9.99000000e+02" Max="4.64221191e+00"/>
    <Variable VarIndex="22" Expression="JetPhi2" Label="JetPhi2" Title="JetPhi2" Unit="" Internal="JetPhi2" Type="F" Min="-9.99000000e+02" Max="3.14119291e+00"/>
    <Variable VarIndex="23" Expression="JetMass2" Label="JetMass2" Title="JetMass2" Unit="" Internal="JetMass2" Type="F" Min="-9.99000000e+02" Max="7.28524399e+01"/>
    <Variable VarIndex="24" Expression="JetBTagger2" Label="JetBTagger2" Title="JetBTagger2" Unit="" Internal="JetBTagger2" Type="F" Min="-9.99000000e+02" Max="9.99819815e-01"/>
  </Variables>
  <Spectators NSpec="0"/>
  <Classes NClass="2">
    <Class Name="Signal" Index="0"/>
    <Class Name="Background" Index="1"/>
  </Classes>
  <Transformations NTransformations="1">
    <Transform Name="Normalize">
      <Selection>
        <Input NInputs="25">
          <Input Type="Variable" Label="ExtraLepPt1" Expression="ExtraLepPt1"/>
          <Input Type="Variable" Label="ExtraLepPhi1" Expression="ExtraLepPhi1"/>
          <Input Type="Variable" Label="ExtraLepEta1" Expression="ExtraLepEta1"/>
          <Input Type="Variable" Label="LepPt[0]" Expression="LepPt[0]"/>
          <Input Type="Variable" Label="LepPhi[0]" Expression="LepPhi[0]"/>
          <Input Type="Variable" Label="LepEta[0]" Expression="LepEta[0]"/>
          <Input Type="Variable" Label="LepPt[1]" Expression="LepPt[1]"/>
          <Input Type="Variable" Label="LepPhi[1]" Expression="LepPhi[1]"/>
          <Input Type="Variable" Label="LepEta[1]" Expression="LepEta[1]"/>
          <Input Type="Variable" Label="LepPt[2]" Expression="LepPt[2]"/>
          <Input Type="Variable" Label="LepPhi[2]" Expression="LepPhi[2]"/>
          <Input Type="Variable" Label="LepEta[2]" Expression="LepEta[2]"/>
          <Input Type="Variable" Label="LepPt[3]" Expression="LepPt[3]"/>
          <Input Type="Variable" Label="LepPhi[3]" Expression="LepPhi[3]"/>
          <Input Type="Variable" Label="LepEta[3]" Expression="LepEta[3]"/>
          <Input Type="Variable" Label="JetPt1" Expression="JetPt1"/>
          <Input Type="Variable" Label="JetEta1" Expression="JetEta1"/>
          <Input Type="Variable" Label="JetPhi1" Expression="JetPhi1"/>
          <Input Type="Variable" Label="JetMass1" Expression="JetMass1"/>
          <Input Type="Variable" Label="JetBTagger1" Expression="JetBTagger1"/>
          <Input Type="Variable" Label="JetPt2" Expression="JetPt2"/>
          <Input Type="Variable" Label="JetEta2" Expression="JetEta2"/>
          <Input Type="Variable" Label="JetPhi2" Expression="JetPhi2"/>
          <Input Type="Variable" Label="JetMass2" Expression="JetMass2"/>
          <Input Type="Variable" Label="JetBTagger2" Expression="JetBTagger2"/>
        </Input>
        <Output NOutputs="25">
          <Output Type="Variable" Label="ExtraLepPt1" Expression="ExtraLepPt1"/>
          <Output Type="Variable" Label="ExtraLepPhi1" Expression="ExtraLepPhi1"/>
          <Output Type="Variable" Label="ExtraLepEta1" Expression="ExtraLepEta1"/>
          <Output Type="Variable" Label="LepPt[0]" Expression="LepPt[0]"/>
          <Output Type="Variable" Label="LepPhi[0]" Expression="LepPhi[0]"/>
          <Output Type="Variable" Label="LepEta[0]" Expression="LepEta[0]"/>
          <Output Type="Variable" Label="LepPt[1]" Expression="LepPt[1]"/>
          <Output Type="Variable" Label="LepPhi[1]" Expression="LepPhi[1]"/>
          <Output Type="Variable" Label="LepEta[1]" Expression="LepEta[1]"/>
          <Output Type="Variable" Label="LepPt[2]" Expression="LepPt[2]"/>
          <Output Type="Variable" Label="LepPhi[2]" Expression="LepPhi[2]"/>
          <Output Type="Variable" Label="LepEta[2]" Expression="LepEta[2]"/>
          <Output Type="Variable" Label="LepPt[3]" Expression="LepPt[3]"/>
          <Output Type="Variable" Label="LepPhi[3]" Expression="LepPhi[3]"/>
          <Output Type="Variable" Label="LepEta[3]" Expression="LepEta[3]"/>
          <Output Type="Variable" Label="JetPt1" Expression="JetPt1"/>
          <Output Type="Variable" Label="JetEta1" Expression="JetEta1"/>
          <Output Type="Variable" Label="JetPhi1" Expression="JetPhi1"/>
          <Output Type="Variable" Label="JetMass1" Expression="JetMass1"/>
          <Output Type="Variable" Label="JetBTagger1" Expression="JetBTagger1"/>
          <Output Type="Variable" Label="JetPt2" Expression="JetPt2"/>
          <Output Type="Variable" Label="JetEta2" Expression="JetEta2"/>
          <Output Type="Variable" Label="JetPhi2" Expression="JetPhi2"/>
          <Output Type="Variable" Label="JetMass2" Expression="JetMass2"/>
          <Output Type="Variable" Label="JetBTagger2" Expression="JetBTagger2"/>
        </Output>
      </Selection>
      <Class ClassIndex="0">
        <Ranges>
          <Range Index="0" Min="5.4757046699523926e+00" Max="5.3534887695312500e+02"/>
          <Range Index="1" Min="-3.1385607719421387e+00" Max="3.1415731906890869e+00"/>
          <Range Index="2" Min="-2.4524152278900146e+00" Max="2.4673166275024414e+00"/>
          <Range Index="3" Min="5.6593942642211914e+00" Max="4.4062628173828125e+02"/>
          <Range Index="4" Min="-3.1311769485473633e+00" Max="3.1362528800964355e+00"/>
          <Range Index="5" Min="-2.3992993831634521e+00" Max="2.4280622005462646e+00"/>
          <Range Index="6" Min="5.7300543785095215e+00" Max="5.5517694091796875e+02"/>
          <Range Index="7" Min="-3.1403431892395020e+00" Max="3.1409649848937988e+00"/>
          <Range Index="8" Min="-2.4285159111022949e+00" Max="2.4808535575866699e+00"/>
          <Range Index="9" Min="5.0887012481689453e+00" Max="2.9508593750000000e+02"/>
          <Range Index="10" Min="-3.1393172740936279e+00" Max="3.1408889293670654e+00"/>
          <Range Index="11" Min="-2.4450690746307373e+00" Max="2.4631636142730713e+00"/>
          <Range Index="12" Min="5.0029978752136230e+00" Max="2.7446496582031250e+02"/>
          <Range Index="13" Min="-3.1389639377593994e+00" Max="3.1361787319183350e+00"/>
          <Range Index="14" Min="-2.4861078262329102e+00" Max="2.3709161281585693e+00"/>
          <Range Index="15" Min="3.2142837524414062e+01" Max="7.6835974121093750e+02"/>
          <Range Index="16" Min="-3.8243699073791504e+00" Max="4.6228899955749512e+00"/>
          <Range Index="17" Min="-3.1414616107940674e+00" Max="3.1397314071655273e+00"/>
          <Range Index="18" Min="4.1422762870788574e+00" Max="1.4343931579589844e+02"/>
          <Range Index="19" Min="-2.0000000000000000e+00" Max="9.9984639883041382e-01"/>
          <Range Index="20" Min="-9.9900000000000000e+02" Max="3.2394671630859375e+02"/>
          <Range Index="21" Min="-9.9900000000000000e+02" Max="4.1191673278808594e+00"/>
          <Range Index="22" Min="-9.9900000000000000e+02" Max="3.1410460472106934e+00"/>
          <Range Index="23" Min="-9.9900000000000000e+02" Max="4.3003368377685547e+01"/>
          <Range Index="24" Min="-9.9900000000000000e+02" Max="9.9980181455612183e-01"/>
        </Ranges>
      </Class>
      <Class ClassIndex="1">
        <Ranges>
          <Range Index="0" Min="5.4139318466186523e+00" Max="5.1705969238281250e+02"/>
          <Range Index="1" Min="-3.1389138698577881e+00" Max="3.1390993595123291e+00"/>
          <Range Index="2" Min="-2.4676008224487305e+00" Max="2.4357566833496094e+00"/>
          <Range Index="3" Min="5.3084955215454102e+00" Max="5.1948126220703125e+02"/>
          <Range Index="4" Min="-3.1414768695831299e+00" Max="3.1408965587615967e+00"/>
          <Range Index="5" Min="-2.4000880718231201e+00" Max="2.3929038047790527e+00"/>
          <Range Index="6" Min="5.3388581275939941e+00" Max="4.9323718261718750e+02"/>
          <Range Index="7" Min="-3.1364698410034180e+00" Max="3.1409096717834473e+00"/>
          <Range Index="8" Min="-2.4995901584625244e+00" Max="2.3948252201080322e+00"/>
          <Range Index="9" Min="5.0389442443847656e+00" Max="3.2218280029296875e+02"/>
          <Range Index="10" Min="-3.1406545639038086e+00" Max="3.1381804943084717e+00"/>
          <Range Index="11" Min="-2.3990428447723389e+00" Max="2.4684484004974365e+00"/>
          <Range Index="12" Min="5.0714554786682129e+00" Max="3.1998251342773438e+02"/>
          <Range Index="13" Min="-3.1389689445495605e+00" Max="3.1412940025329590e+00"/>
          <Range Index="14" Min="-2.4463627338409424e+00" Max="2.4538195133209229e+00"/>
          <Range Index="15" Min="3.1118835449218750e+01" Max="7.8110565185546875e+02"/>
          <Range Index="16" Min="-3.8910460472106934e+00" Max="4.5175752639770508e+00"/>
          <Range Index="17" Min="-3.1396572589874268e+00" Max="3.1407408714294434e+00"/>
          <Range Index="18" Min="5.0363216400146484e+00" Max="1.7848170471191406e+02"/>
          <Range Index="19" Min="-2.0000000000000000e+00" Max="9.9979978799819946e-01"/>
          <Range Index="20" Min="-9.9900000000000000e+02" Max="3.5659310913085938e+02"/>
          <Range Index="21" Min="-9.9900000000000000e+02" Max="4.6422119140625000e+00"/>
          <Range Index="22" Min="-9.9900000000000000e+02" Max="3.1411929130554199e+00"/>
          <Range Index="23" Min="-9.9900000000000000e+02" Max="7.2852439880371094e+01"/>
          <Range Index="24" Min="-9.9900000000000000e+02" Max="9.9981981515884399e-01"/>
        </Ranges>
      </Class>
      <Class ClassIndex="2">
        <Ranges>
          <Range Index="0" Min="5.4139318466186523e+00" Max="5.3534887695312500e+02"/>
          <Range Index="1" Min="-3.1389138698577881e+00" Max="3.1415731906890869e+00"/>
          <Range Index="2" Min="-2.4676008224487305e+00" Max="2.4673166275024414e+00"/>
          <Range Index="3" Min="5.3084955215454102e+00" Max="5.1948126220703125e+02"/>
          <Range Index="4" Min="-3.1414768695831299e+00" Max="3.1408965587615967e+00"/>
          <Range Index="5" Min="-2.4000880718231201e+00" Max="2.4280622005462646e+00"/>
          <Range Index="6" Min="5.3388581275939941e+00" Max="5.5517694091796875e+02"/>
          <Range Index="7" Min="-3.1403431892395020e+00" Max="3.1409649848937988e+00"/>
          <Range Index="8" Min="-2.4995901584625244e+00" Max="2.4808535575866699e+00"/>
          <Range Index="9" Min="5.0389442443847656e+00" Max="3.2218280029296875e+02"/>
          <Range Index="10" Min="-3.1406545639038086e+00" Max="3.1408889293670654e+00"/>
          <Range Index="11" Min="-2.4450690746307373e+00" Max="2.4684484004974365e+00"/>
          <Range Index="12" Min="5.0029978752136230e+00" Max="3.1998251342773438e+02"/>
          <Range Index="13" Min="-3.1389689445495605e+00" Max="3.1412940025329590e+00"/>
          <Range Index="14" Min="-2.4861078262329102e+00" Max="2.4538195133209229e+00"/>
          <Range Index="15" Min="3.1118835449218750e+01" Max="7.8110565185546875e+02"/>
          <Range Index="16" Min="-3.8910460472106934e+00" Max="4.6228899955749512e+00"/>
          <Range Index="17" Min="-3.1414616107940674e+00" Max="3.1407408714294434e+00"/>
          <Range Index="18" Min="4.1422762870788574e+00" Max="1.7848170471191406e+02"/>
          <Range Index="19" Min="-2.0000000000000000e+00" Max="9.9984639883041382e-01"/>
          <Range Index="20" Min="-9.9900000000000000e+02" Max="3.5659310913085938e+02"/>
          <Range Index="21" Min="-9.9900000000000000e+02" Max="4.6422119140625000e+00"/>
          <Range Index="22" Min="-9.9900000000000000e+02" Max="3.1411929130554199e+00"/>
          <Range Index="23" Min="-9.9900000000000000e+02" Max="7.2852439880371094e+01"/>
          <Range Index="24" Min="-9.9900000000000000e+02" Max="9.9981981515884399e-01"/>
        </Ranges>
      </Class>
    </Transform>
  </Transformations>
  <MVAPdfs/>
  <Weights>
    <Layout NLayers="3">
      <Layer Index="0" NNeurons="26">
        <Neuron NSynapses="30">
          -3.4918904243120025e-01 2.4255346928923736e+00 1.8805735184875463e+00 1.2853907538565781e+00 -2.7975199982805319e+00 -1.7372346308362947e+00 -1.6754837932107838e-01 2.4491469503693808e+00 -1.1267901373550411e+00 -1.5387681625124550e+00 -2.0388680324374833e+00 -6.5303671354699744e-01 -1.2588607518822692e+00 -5.0783152251022645e-01 -6.6203765269525505e-01 7.6577997105044204e-01 7.6025866015085763e-01 8.5813822098670933e-01 4.7223423559101763e-01 1.1903189267819079e+00 -5.1393552543044463e-01 -6.4885866652770541e-01 9.7362468028582227e-01 -1.0735839302930859e+00 -6.7540273701202436e-01 2.2594470004862821e-01 2.0843832141023722e+00 -1.5716750645230584e+00 -2.1452093158775778e+00 3.5841103912608929e-01 
        </Neuron>
        <Neuron NSynapses="30">
          5.5160751705468936e-01 1.1532311440790910e+00 5.6901846794812549e-01 8.0401110280128835e-02 -3.9218060693058254e-01 1.5008829122410117e-01 -1.2595230664518147e+00 2.4813077948627758e+00 -6.8996896010197628e-01 8.6628446579346152e-01 -2.5589107125942523e-01 4.4679160347377089e-01 1.1426299241098834e+00 8.7784913198386916e-01 -1.3842592279100159e+00 -2.2443806674814115e+00 3.7298745446178111e-01 9.8999294232438939e-01 1.6467859675201435e+00 1.0385861030005903e+00 8.8120046214064190e-02 1.0616125336054314e+00 -2.7486820325395347e+00 1.9066101481121982e+00 -1.4780554034766191e+00 -2.0758246213871137e+00 -1.3840928325710826e+00 -2.2751010710414352e+00 1.1951262992703557e+00 2.1023620392721459e-01 
        </Neuron>
        <Neuron NSynapses="30">
          -1.6414340585422424e+00 2.5430810164060175e-01 4.4046309703822062e-01 -7.4721258367929155e-01 2.6409822478453493e+00 -2.5960929438137337e-01 6.8258222915932765e-01 -1.4781464757185963e+00 -3.6453109570075182e-01 -1.2895272345669082e-01 2.4621705532376437e-01 -9.3997297125660806e-01 1.4587285410229032e+00 1.0994503544000429e+00 1.6399588915279539e+00 -1.2330105678119299e+00 -2.8952314970481994e+00 -1.4576050908160358e+00 1.1883423616908935e+00 4.1746433615674244e-01 2.0002257892728657e+00 1.4958843796931515e-01 1.4146657887777692e-01 -4.9576073871528198e-01 -6.1689677605975635e-01 2.0308266615279305e-01 5.6606438624502786e-01 -1.1413559121613888e+00 -2.0226844193313878e+00 -2.0714583985231116e+00 
        </Neuron>
        <Neuron NSynapses="30">
          -1.6712237561652230e+00 -2.9446969638085169e-01 1.6534601704112992e+00 -1.9090325046862588e+00 -8.6091907022270364e-01 1.2405715008071525e+00 -2.4627305573433222e+00 -1.2712110152756841e+00 -1.1486648251503364e+00 5.6772793833450075e-01 -2.2631753220760462e+00 -1.5540845121195275e+00 9.3018314198006613e-01 1.4321750480869764e+00 -1.3453105316246599e+00 1.9748236629564215e+00 -1.1302470143166421e+00 -1.8352469538355926e-01 -1.7958207394826578e-01 2.4129298669054067e-01 -7.4640586538549591e-01 1.8547150427344386e-01 -3.6214567530155763e-02 1.7077531236454659e+00 -1.7328925510222268e+00 1.9859515613619443e+00 5.0094093245733273e-01 -4.7696273464946898e-01 7.5209320054123929e-01 -1.4548714111810350e+00 
        </Neuron>
        <Neuron NSynapses="30">
          -1.9431096791879530e+00 7.1184076908019048e-02 -1.0181512123934751e+00 -6.0208190266228334e-01 7.6770089930527163e-01 -4.2466505192830545e-01 3.2332454982364874e-02 -7.8480132825123627e-01 -2.5972107181212847e+00 1.2813145083273925e+00 2.7480827759755927e-01 -1.7397877173414449e+00 8.8758755197065242e-01 -1.1774633560572179e+00 2.5427318725068548e-01 -2.2135321690091520e-01 1.7850372696873849e+00 -1.3425169578760325e+00 1.4876400094455813e+00 1.4208324975017830e+00 3.7890030218267123e-01 -8.0390590217847879e-01 -1.1861787400609740e+00 -7.7223116125874003e-01 8.7086337423209911e-02 1.5396597128120884e-01 1.5576409122345920e+00 -7.4358503461945036e-01 2.7992864139282786e-01 8.0065774775566789e-01 
        </Neuron>
        <Neuron NSynapses="30">
          -1.5697689304990423e-01 1.1453062462689156e+00 1.4412029444574876e+00 2.6895201932967205e-01 -2.1605501960035597e-01 1.0167335963204724e+00 2.5438039634135943e+00 2.1600561113018601e+00 9.2559231944106757e-01 -7.3391162692305179e-01 1.9836807591723451e+00 8.2405449637318373e-01 6.2831791311924812e-01 2.5404257630490801e-01 4.4733467138657002e-01 -1.8299933135159037e+00 -3.2037362413906045e-01 1.0286992192329758e+00 -7.0886408598816275e-01 -9.5519641199331895e-01 6.4827959522057632e-01 7.7003805316839102e-01 -8.7995483978118338e-01 2.3281232384219557e+00 2.4055582294419784e+00 -2.1790734446707969e+00 1.5747091925391896e+00 1.9393584208257566e+00 3.9280125619193446e-01 -1.7661159162829472e+00 
        </Neuron>
        <Neuron NSynapses="30">
          -3.5728575170541725e-02 1.2573190189922987e+00 2.5378200361036298e+00 -2.1507782720222002e+00 -1.0682781438720574e+00 -2.0090637883031032e-01 -2.7066716070419772e-01 1.2439440846007372e+00 -2.1246724204801266e+00 3.6146473611760363e-02 -1.1728416411623577e+00 1.5610490019002266e+00 1.4725810773888530e+00 1.0187272759857757e+00 1.5112731493410675e-01 -1.3708258133780273e+00 -2.2277928454648097e+00 8.1993326111621812e-01 7.5104910046162032e-01 -1.0939308091840640e+00 -1.8875219900230880e+00 1.0311943674818697e-01 -8.6179698033267615e-01 -1.7765899703657408e+00 1.9005000025322865e+00 8.6749680794377360e-01 -8.5032490331567390e-01 6.7903445667537166e-01 2.0241173209196170e+00 7.8276748943241958e-01 
        </Neuron>
        <Neuron NSynapses="30">
          -7.5805566059301677e-01 -1.3053985029112319e-01 -1.3996538205641169e+00 -2.6868951077868347e-01 1.5798568964222759e+00 1.6647937034926705e+00 1.6047299926086442e-01 9.0362512652820492e-01 2.1672651230739310e+00 -1.0475680268414409e+00 -1.2211559321927302e-01 5.7378632972718568e-01 -1.4486484766759431e+00 1.3413005221410363e+00 1.2811498595003352e+00 -1.5372855350061290e+00 1.1879295842753330e+00 -1.0054710915687078e-02 -1.3811951423328237e+00 2.4108886965619356e-01 -1.0612439103141574e-01 -3.2844654453973866e-02 -3.7916270628711929e-01 -2.3353955189654494e+00 1.8180800786285696e+00 -1.8532527362601365e+00 1.1936524100701236e+00 1.0936556481234385e+00 -6.7151827546238729e-01 -1.7019347185423941e+00 
        </Neuron>
        <Neuron NSynapses="30">
          -1.4308773538690054e+00 -7.2467353568084458e-01 -1.5990253621058619e+00 -1.1634816373174475e+00 -1.9301171343449024e+00 -4.4403206463661371e-01 -1.0397089769886512e+00 -1.6461211524077575e+00 2.6025770976212219e+00 -1.2358405564329851e+00 6.2063403045120691e-01 -2.1661289332826335e+00 2.9565144979844227e-01 1.7141915848724347e+00 8.9909365451137369e-01 -1.2872637489615388e+00 -7.4842623236722594e-01 -2.2394186674597347e+00 -1.0212609480258668e+00 -2.3542457305646685e+00 2.6661585005759575e-01 -2.9654350459094370e-01 1.2702249735969846e+00 -6.8881618809009082e-01 8.4391188645390169e-01 -6.6273973345649406e-01 -2.3745578272213215e+00 1.0826783763498697e+00 1.0430156866775728e+00 -1.1244608109297398e+00 
        </Neuron>
        <Neuron NSynapses="30">
          -1.1641000796635710e+00 8.3998121735881293e-01 8.9965345727690826e-01 -5.3130927485177470e-01 -4.0822647169189991e-01 -1.8006488312284247e-01 1.2562534927372073e+00 1.0515988444683289e+00 1.5950297002723104e-01 2.1530068622040325e-02 -4.9869660965467111e-01 -1.4845433158444701e+00 -7.4282775306165727e-01 -6.6405579451270935e-01 -1.8392168806079063e+00 -1.3292820802000445e+00 -1.9335564423525855e+00 1.8906401480956851e+00 -1.8064209243811333e+00 1.9459293429239002e+00 -3.0282569374036630e+00 1.1818048947464246e+00 -1.5284602401177889e+00 9.7543606986953724e-01 7.7467654971570321e-01 -2.0113474793581925e+00 5.0714704165556801e-01 5.3124405936208963e-01 -1.6943170868908697e+00 -8.5347260028373662e-01 
        </Neuron>
        <Neuron NSynapses="30">
          -3.9367080635082363e-01 -6.5594138046895534e-01 2.1783486686816671e+00 -6.0513925442984273e-01 8.7031894349542138e-01 1.5097427304345865e-01 -9.2050359863184772e-01 -2.0246762254783457e+00 -1.3854357174782661e+00 -1.0762111927567095e+00 1.0449652903597979e+00 -9.1821271736487931e-01 -1.8560000811752899e+00 1.1293903238841876e+00 -5.2422135517314261e-01 -1.7306332042041985e+00 6.0478026669757301e-01 -2.0228167394940924e+00 1.2856971730287716e+00 2.0971078312496064e-01 -4.5889368007177223e-01 -8.8877959622987113e-01 -4.7075603896940538e-01 -1.8604588833611384e+00 -4.7935358674312162e-01 7.8056395857653671e-01 1.0841337739027499e+00 1.8882478138382917e+00 -7.1000137686953047e-01 6.6111192146302655e-01 
        </Neuron>
        <Neuron NSynapses="30">
          -3.5309924479281647e+00 -9.0191680302028593e-02 -1.6794104079438859e+00 -1.9982526950309529e+00 2.3530377410998954e-01 1.1157370618569478e+00 4.4093352279957454e-01 1.6420132540671181e-01 1.0807273866779525e+00 -1.9791259545862253e-01 1.2954402455381764e-01 9.2713706880836544e-01 2.9947886161070323e+00 -2.1061803105416521e+00 1.9390692577011603e-01 -9.2780003031201552e-01 1.5817753065300975e+00 -4.9246960832547726e-01 3.4680890499330830e-01 -1.6567789312744678e+00 4.9951258639726537e-01 1.5209341129676703e+00 7.8306598151507678e-01 1.9351790839242472e-01 -1.9995960863543196e+00 -2.0401223943322009e+00 -2.3167337846440379e+00 2.0897577358895139e+00 -7.7418445059268226e-01 -8.0850865530758975e-01 
        </Neuron>
        <Neuron NSynapses="30">
          1.0551559504518213e+00 -2.4152749211387121e+00 -7.3624377630360793e-01 -1.9325188359929024e+00 -1.5132448155463887e-01 -1.3997074002310566e+00 -1.7469014594230672e+00 2.0232720253815759e-01 -5.8906475773838496e-01 -1.2986307401035022e+00 1.7195553300402027e+00 -2.5661914847768319e+00 -8.1271434634636197e-01 1.6263520213094422e+00 7.1372575120861448e-01 1.0083800479497715e+00 -2.6388514926513446e-01 1.0493800478480575e+00 1.6180316517015583e+00 6.9892021543840210e-01 -7.6941863425826440e-01 -6.7316587406079409e-01 -2.0182249358854003e+00 1.3850120456084898e+00 1.4535650846239379e+00 4.5653398495915981e-01 6.7074067819860372e-01 1.5395646333148305e+00 1.3504058371806078e+00 -1.3432444786710254e+00 
        </Neuron>
        <Neuron NSynapses="30">
          1.0766305214522618e+00 3.3449905231273114e-01 -2.5772315610644618e+00 -1.2311153993771331e+00 -6.2618932410179484e-01 8.4204720130692789e-01 8.4656062058652753e-02 1.5391838255332642e+00 1.4263318225944641e+00 1.1760081358371954e-01 1.7486370510336058e+00 2.2909058936810003e+00 2.3018687192268708e-01 -5.6260926202190120e-01 1.6693163284918533e+00 -1.7664179040682275e+00 -2.3153068160166948e-01 2.0965098618816977e+00 9.9206686569996885e-02 -1.2001945913983603e+00 -1.2774101397005799e-01 -2.4706353057012262e+00 -4.6001954706681192e-01 -1.8783144796111897e+00 5.1852365923778310e-01 6.1666599492595571e-02 2.0304621852027456e+00 1.0369568637386661e+00 2.0730702141966635e+00 -7.2566582646600586e-01 
        </Neuron>
        <Neuron NSynapses="30">
          -8.8323050229493716e-02 1.1147313355214392e+00 2.0931868199014807e+00 -1.9771783605591196e+00 -2.1207027702968637e+00 -9.4549791252119431e-01 -1.9158066088886303e+00 -1.4226515103703936e+00 -1.4609185911466034e+00 1.5425643779233029e+00 1.3450518572503403e-01 -3.1978555687686563e+00 -1.2272674211754886e+00 -6.7060669711517384e-01 1.6917787752721201e+00 -7.6519001019598720e-01 1.6302689724414394e+00 -1.8067636649197993e+00 -1.8176250360322244e+00 -4.3662760425459696e-01 -7.0438232196754735e-01 -2.4856463932934374e+00 -5.3366164865609633e-01 2.4110296915480642e-01 2.5294959611362827e-01 1.7595137295524046e+00 5.8167421470840741e-01 -6.2138065726845226e-01 -8.4025628403222208e-01 -1.1156523163346386e+00 
        </Neuron>
        <Neuron NSynapses="30">
          1.8588381340613238e+00 -2.0978538136632915e-01 2.2731077403123728e-01 1.3534018572693034e+00 9.9419869252882898e-01 -7.8647263988611560e-01 1.1403429208728051e+00 -1.7803575150244939e+00 1.5566390593565094e+00 2.3238247843845339e+00 -4.3451035821324080e-01 1.7947773202224468e-01 1.1019612336770452e+00 -7.3360813336362318e-01 1.3179186916494614e+00 1.7671931531744685e+00 -4.9183939703939206e-01 -1.6446333313736305e+00 2.7809484977926324e-01 1.3930769540389589e+00 -2.1009587829489570e-01 -8.1015541007520686e-01 -2.5294825707927684e+00 6.0168293108595405e-01 1.5599528399530174e+00 -1.2138507122223665e+00 -7.3144786326398648e-01 -5.0514061102136076e-01 1.4449522941211312e+00 7.6453901288935233e-01 
        </Neuron>
        <Neuron NSynapses="30">
          -1.6991273007797955e-01 -1.3699217300603517e+00 1.8764712989936723e+00 1.5163441637783623e+00 -1.0500930005800195e-01 5.8003060213782542e-01 -5.9558286010822581e-01 -9.5446799516333991e-01 1.2110270711356586e+00 1.9265057644946884e-01 1.4069425167685725e+00 -1.6909484885361739e+00 -2.3342081776566945e+00 -2.0810187596374328e+00 1.6885760777686037e-01 -3.5302917477263340e-01 2.3259305055784729e-01 -6.4919985299385818e-01 1.8021005578793172e+00 -1.1303418491382518e+00 -4.7274537342390568e+00 7.4000958158999963e-01 2.1099462044513673e+00 -5.3941449301899358e-01 -6.8330446597201056e-02 -1.8981235992957315e+00 1.5469043440848900e+00 -7.9171799954407440e-01 5.2846685295175944e-01 -1.2403411738829164e+00 
        </Neuron>
        <Neuron NSynapses="30">
          1.2035237026732661e+00 -7.4305030265205230e-01 -1.8479899105617419e-02 -4.5494690150807304e-01 1.0066304391170998e-01 2.9873675151490015e-01 -1.0886620542034571e+00 1.4689842788653851e-01 3.5654180396765711e-01 5.1640035031732900e-01 -3.2512569252947410e-01 -1.7663394202704197e+00 1.6713418977464463e+00 -2.0088935852277441e+00 1.0604083339674839e+00 -4.6074171354745425e-01 9.2505626124586959e-01 1.3016888324635720e+00 1.1143810295236429e+00 -1.1974412164474069e+00 2.5210971795321596e-01 -1.1054223717341631e+00 5.0290916255660667e-01 6.3447291112541870e-01 -6.6851957222329128e-01 5.1177821695889414e-01 9.1157219138272549e-01 -1.0355041334251374e+00 1.9991417533112699e-01 -1.5777768622021942e+00 
        </Neuron>
        <Neuron NSynapses="30">
          -4.5266763856051589e-01 1.3725800151506840e-01 -1.0052323302528401e+00 -2.0673298024259692e+00 -2.1530159922516717e-01 2.8516870706719244e-01 -4.7859226368013197e-01 -1.3359007384983983e+00 1.9389876734997320e+00 -4.6867377426163190e-02 5.8633916022806221e-01 6.7955621036411284e-01 -8.6265691514782139e-01 -1.0952788785259127e+00 -4.5237981618212009e-01 -1.0743411127613594e+00 -4.4449147789640331e-01 -1.7008424681676368e+00 1.4343502015453582e+00 -2.2584329267764187e+00 1.9805130949577250e+00 1.8610258426610864e+00 1.3410923248865865e+00 8.7128598445298377e-01 1.1745316461704651e+00 7.0459591512575837e-01 -8.9270070565595017e-01 -1.3693939624978479e+00 -8.0957645430975222e-01 -1.1362001726000297e+00 
        </Neuron>
        <Neuron NSynapses="30">
          1.7566435454469376e+00 1.2502039880764362e+00 4.0179193721487078e-01 1.8883192350244221e-01 7.1018258331219408e-01 -1.3734513249301061e+00 1.1078116660960684e+00 -1.3686270170498205e-01 -1.4284078898955724e-01 -2.0239530241187569e+00 -4.0968190525181186e-01 7.8783982128039998e-01 1.9320596736204649e+00 -1.7041571164493829e+00 1.4750367217881202e-01 -1.9659902325526390e+00 2.7059278849698937e-01 8.7812054639205306e-01 -3.3579358890746502e-01 6.8690797377146073e-01 -4.2179879812714888e-01 9.9592704157287615e-01 -2.9953960994409218e-01 -9.8641966869024589e-01 -2.1215413909876557e+00 -2.5125046978800236e-01 1.2034347053463961e+00 -1.7407407598170517e+00 -1.3899491787769442e+00 -2.6996258405488809e+00 
        </Neuron>
        <Neuron NSynapses="30">
          1.4976427468347653e+00 1.1877503298234751e+00 1.5828960692506702e+00 -1.8562826247426312e+00 6.1701403731899684e-01 4.8793600572895013e-01 3.5488538352553795e-01 -9.9136457550414769e-01 -1.8039722379730745e+00 7.0084057306114889e-01 -4.2967835972399740e-02 1.9299311338023588e+00 -7.1722963444856913e-01 -1.2625393537023745e-02 -1.0888395014170917e+00 1.1555893945287710e+00 9.0755616396416453e-02 1.5702404360315509e+00 -9.6303889572467816e-01 -1.9632980930523145e+00 2.1823013306654189e+00 1.9153260508979190e-02 1.4472487012876434e+00 -2.5133164327855129e-01 -1.2485507924574919e+00 -1.3673011100855301e+00 -1.4746451164655587e+00 -1.1641461704805547e-01 -1.0398702461193754e+00 -1.0189347888721530e-01 
        </Neuron>
        <Neuron NSynapses="30">
          4.2081630841242063e-01 -8.2621604498122170e-01 1.0646499823671536e+00 -2.3966511864623077e+00 -1.0604149395125484e+00 -1.5984358111229741e-01 -7.9702083090953080e-01 1.1381069861227306e+00 7.3079385187591139e-01 -9.9633557573283316e-01 -4.9317175433588178e-01 -1.0124412218252781e+00 4.7304863696889232e-01 6.4966207134557397e-01 -1.2249501962550475e+00 -1.1085602467982840e+00 -1.9252765187257979e+00 1.9391297127775546e+00 -2.6171011455366233e-01 7.6005681681506898e-01 -4.6157528277301146e-01 -1.5588453718511568e+00 -1.2484198187434183e+00 -1.0096700815944786e+00 8.8372956318196444e-02 3.9711082345316429e-01 1.1059110935171017e-01 -1.3479768783444990e+00 8.7975169043447543e-01 -1.7985641695297078e-01 
        </Neuron>
        <Neuron NSynapses="30">
          -9.6351433561762789e-01 1.7838227808267153e+00 1.1325252728688702e+00 -1.8465417698566262e+00 -1.0132526027483455e+00 -1.9856658886581298e+00 2.8497210175040116e-01 2.0711904836603607e+00 4.6359601436822445e-01 1.6508600273393881e+00 -2.0461263742076801e+00 -4.1568702846153405e-01 -6.7820639313703934e-01 -1.9277554557015314e-01 1.3309572519531780e+00 -2.0788525005095617e+00 1.0123172921025301e+00 -2.5769637852865451e-01 -1.6936638151669656e-01 -2.4233858321795805e+00 9.9236624407522234e-01 1.0081006420756246e-01 1.9350280894766234e+00 -9.8177170626772181e-01 8.9814006576507255e-01 1.8763804462862602e-01 1.3481679702697762e+00 -6.5506849778218534e-01 -1.3452569383422137e+00 -2.0403214991577614e+00 
        </Neuron>
        <Neuron NSynapses="30">
          1.0296017649204274e+00 7.2777399611059346e-01 8.7456899993811088e-01 5.9860685465386532e-01 5.0678505793816397e-01 -5.2918502291469982e-01 1.3725595805656197e+00 1.2788389887648615e+00 -2.4971399971893931e+00 1.0937621219650833e+00 9.3942694920711556e-01 2.1875969010265104e+00 9.5220185571275673e-01 -5.7301420418520232e-01 -1.1162298190043607e+00 -1.0728919293355290e+00 -1.3821011537144861e+00 -7.9677031354907490e-01 2.4044721115612319e-01 3.0492586509647934e-01 -1.0150886253191707e+00 7.7223363723552718e-01 1.2821641583569083e+00 2.3785399328325671e-01 -5.9312578341405231e-01 2.0873210279256132e-01 1.0993587258544986e+00 -1.7100396583707023e+00 2.2330280279153860e+00 -4.3127361829016592e-01 
        </Neuron>
        <Neuron NSynapses="30">
          -3.6630474062650048e-01 1.7125816258820341e+00 -1.2988190675609963e+00 -1.0104855872851435e+00 1.7085916617197321e+00 3.4521135607017764e-02 3.7863077424546476e-01 1.2419847868094630e-01 1.2339841544977428e+00 2.6556051513187895e+00 4.0026752622761125e-01 -8.5102160368160062e-01 1.9836906002413324e+00 2.2055235729924259e+00 2.4709597513446209e-02 2.3248688387411687e-01 -2.4972292452656369e-01 1.5967954190186073e+00 -1.7851808177845352e+00 -5.7389798325504549e-01 -1.0145049406822939e+00 1.1247879323143068e+00 -1.7586775960836194e+00 3.5980939137430951e-01 -1.7573800944580256e+00 -5.3139672136073195e-03 9.3243213008561321e-01 1.7210924730985013e+00 -1.6149434907132318e+00 -9.6368025842890292e-01 
        </Neuron>
        <Neuron NSynapses="30">
          -4.6136735510324595e-01 6.9782817081085502e-01 9.9699114251800447e-01 7.6624392360333282e-01 1.5051868359200993e+00 1.1111502100520593e-01 1.2306478293117855e+00 2.7793823808609686e-01 -1.8405476644321048e+00 1.1491653873124930e+00 -8.7659322878035018e-01 5.3208104088282547e-02 6.0060792303726640e-01 -6.6446840902296134e-01 1.7391205400757623e+00 -8.0971466535672354e-01 -1.7613286114143769e+00 -7.1827676827741838e-01 -1.2805581793712251e+00 -5.8782397537673969e-01 -2.5119893360637233e+00 6.6559558259441076e-01 1.1958277517368929e+00 2.0951455454770769e+00 -2.0495590886976556e-01 -1.3450462045695277e+00 -1.4934160613195628e+00 1.4120123456671314e+00 -3.3180415948737864e-02 -5.3822822722403441e-01 
        </Neuron>
      </Layer>
      <Layer Index="1" NNeurons="31">
        <Neuron NSynapses="1">
          -8.1772822862553607e-01 
        </Neuron>
        <Neuron NSynapses="1">
          1.6612501738441190e+00 
        </Neuron>
        <Neuron NSynapses="1">
          4.8893855257701435e-01 
        </Neuron>
        <Neuron NSynapses="1">
          6.5196970502952034e-01 
        </Neuron>
        <Neuron NSynapses="1">
          -1.7148345727116991e+00 
        </Neuron>
        <Neuron NSynapses="1">
          -3.2286749695885475e-01 
        </Neuron>
        <Neuron NSynapses="1">
          -2.7671663692859081e+00 
        </Neuron>
        <Neuron NSynapses="1">
          -7.5691487216163622e-01 
        </Neuron>
        <Neuron NSynapses="1">
          5.2307575780507187e-01 
        </Neuron>
        <Neuron NSynapses="1">
          -1.1719972663839640e+00 
        </Neuron>
        <Neuron NSynapses="1">
          5.7892766516617744e-01 
        </Neuron>
        <Neuron NSynapses="1">
          1.1271816701889628e+00 
        </Neuron>
        <Neuron NSynapses="1">
          -6.7616808401564055e-01 
        </Neuron>
        <Neuron NSynapses="1">
          -1.6252634874508334e-01 
        </Neuron>
        <Neuron NSynapses="1">
          1.7536333784192709e-01 
        </Neuron>
        <Neuron NSynapses="1">
          1.2167954274819641e+00 
        </Neuron>
        <Neuron NSynapses="1">
          4.1346751610227689e-01 
        </Neuron>
        <Neuron NSynapses="1">
          6.6143584466951666e-01 
        </Neuron>
        <Neuron NSynapses="1">
          6.7395366333014384e-01 
        </Neuron>
        <Neuron NSynapses="1">
          -1.2990364949566586e+00 
        </Neuron>
        <Neuron NSynapses="1">
          9.2051744909420885e-01 
        </Neuron>
        <Neuron NSynapses="1">
          -4.5135718992219825e-01 
        </Neuron>
        <Neuron NSynapses="1">
          -1.6744291978609556e+00 
        </Neuron>
        <Neuron NSynapses="1">
          -6.0879223989771580e-01 
        </Neuron>
        <Neuron NSynapses="1">
          -3.2402901892313030e+00 
        </Neuron>
        <Neuron NSynapses="1">
          -6.6159277220825352e-01 
        </Neuron>
        <Neuron NSynapses="1">
          -4.7541211413749174e-01 
        </Neuron>
        <Neuron NSynapses="1">
          -5.3695180975563950e-01 
        </Neuron>
        <Neuron NSynapses="1">
          -2.9675341485049883e-01 
        </Neuron>
        <Neuron NSynapses="1">
          5.2694703852516389e-01 
        </Neuron>
        <Neuron NSynapses="1">
          1.7837756060099812e+00 
        </Neuron>
      </Layer>
      <Layer Index="2" NNeurons="1">
        <Neuron NSynapses="0"/>
      </Layer>
    </Layout>
  </Weights>
</MethodSetup>
